appleworks -0.0214246629987 0.0648753545482 -0.0641999299778 -0.0755821289257 0.000585282676223 -0.0267556796757 -0.0113302331108 -0.0271185855704 0.0297326326264 -0.00483817258385 -0.0166204808918 0.00208441041172 0.0345168468352 0.00679203052642 0.0379071333274 0.0033181840924 -0.0646532594971 0.0692663944263 -0.0171170794846 -0.128682929889 -0.0175212906324 0.0631738607067 0.07246251135 -0.0412715302344 0.0564407759936 -0.0517283884391 -0.0137304078836 -0.0477234414065 0.0161369175966 0.0190967056811 -0.0445622293703 0.0362972875402 -0.0961906375462 -0.0359420704746 -0.0242066700019 0.075088343648 -0.00901172499119 0.0340269688402 -0.0102712196401 -0.0378909597694 0.0676805307012 -0.0497988949724 0.000793997888153 -0.0197826287166 -0.0553359192422 0.0345070029629 0.0358799499099 -0.0397854836218 0.0893409739901 0.00967019843926 -0.0184674934544 0.00529866278769 0.0968308264245 0.0680714583963 -0.0163951926692 -0.0112074718528 0.0530561687113 0.0243413352546 -0.0656965692831 -0.00333835137292 -0.0747727021671 0.0402076773369 0.0476662149838 0.00379643567445 -0.0371514699429 0.0162019100424 0.00958121760259 0.0235463794589 0.0211964985559 0.0219705709687 -0.085195999806 0.00283271700469 -0.0399300148817 -0.0133529665001 0.000930901976679 0.046926929879 -0.040846965457 0.00586194298067 -0.0378524146175 0.0721876242782 0.0633375923227 0.0313326642219 -0.0172945182203 -0.035597731187 0.000210487582127 0.0495267052221 0.0594071058673 0.0433768172557 0.0195488258358 -0.0533555426008 -0.0447571642055 0.0453691983371 -0.0190972650673 0.0123214100885 -0.0483665196652 -0.039823828751 0.0110423705895 -0.0709246394347 -0.0243795458289 0.0133749423031 
iphotos 0.0763885744686 -0.127589870377 -0.059598432123 -0.0893749903401 -0.0257746963528 0.00784431352376 0.00888409711165 0.00252586234466 -0.0415542770818 -0.0127614981425 -0.0200258403281 0.0505931933112 0.0957144590929 0.024966610089 0.0470907161693 0.0560674345118 -0.00850685138599 0.0364548815224 -0.00876738484764 -0.0579600195488 -0.0613324154095 0.049324264888 0.0363569269197 0.0588769800836 -0.0596277179978 -0.0645470253915 -0.0220270670882 -0.00916708462431 0.0403069238738 -0.0885643728749 -0.0715886619384 -0.00686064131471 -0.103285574267 -0.0199305119259 -0.0525495543777 0.0959472154636 -0.0103826449455 0.0300635537258 -0.0522411647794 -0.0732001546249 0.0379655370801 -0.139449652054 -0.0266835234991 -0.0973469582352 0.0306154760435 -0.0147001552017 0.0256812605641 -0.00256457897353 0.0516381502622 -0.00912151559933 0.0410228363574 0.0158926396146 -0.00292739855614 0.0482128289354 -0.0411957596517 0.0517597320122 0.0066008127311 0.0684918610189 0.0437766793843 0.0214748584721 -0.100270777985 -0.0286394377969 -0.0462421075505 0.0240299915659 0.033877480193 -0.0363727230506 0.0305251556613 -0.0362130244018 0.060003672736 0.0401754720352 -0.0265263650989 0.0778382173635 -0.00833772043663 -0.005002642134 0.0276478816773 -0.0352780074707 0.0205646670715 0.0139224904524 -0.0319584822445 0.0497989681521 0.00377591405937 -0.0493301613565 -0.097011314417 -0.0386807609838 0.0824919012275 -0.0171699544966 0.0531784580289 -0.0847670807829 -0.020637712021 0.0330767249002 0.0288974748986 0.0221331103884 0.0427223795396 0.0114930303476 -0.0718353817221 0.0506956069818 -0.0750166471052 0.037081893824 0.0392694640685 0.0339937959797 
machouse 0.0385632229286 -0.0334755421071 -0.0840077015654 0.00728792221632 0.0683838459937 -0.0202575798611 0.014506210302 -0.0116900896017 0.0204709101146 0.060421271059 -0.0578690658801 0.0633187370216 0.0410710583272 0.00144279511779 0.0583188241162 -0.0442643620642 -0.00383614726542 -0.0137880275202 -0.0252779157373 -0.0815776206728 -0.01434740952 0.065590738706 0.00536274446359 0.0628189134283 -0.0333646783245 -0.0494821171843 0.019549206027 -0.0327077332613 -0.073237474451 0.00317419960348 -0.0597635583427 0.098480452329 -0.0163356348923 -0.0570088210759 -0.00734073627384 0.0566220133822 -0.0172087447102 -0.0188432933608 -0.0396804338316 -0.0932641022465 0.0240769949972 0.0172584858612 -0.0244563142126 0.0163434995932 -0.0369543878802 0.0523696760874 0.060831884869 -0.0388548052683 -0.0034379901795 -0.0210793897349 0.022689321598 0.0214603223209 0.0740374340678 0.0225937278769 -0.0362424616012 0.0464046139586 0.0659281400803 -0.0275513473616 -0.028171161592 -0.0148663193188 0.00828756529383 0.074451857336 0.00920138542964 0.0335246811211 0.0297958143061 -0.0357736329178 -0.00364631855393 -0.0293326797391 0.0246571166546 0.0555196692224 -0.0164123342099 -0.00298076108601 0.0755737585696 -0.0126672893761 -0.0379158560727 0.0120673177123 -0.0538983976745 0.0915614638678 -0.0574818439595 0.0793427897623 0.0484015445504 0.0178650962193 0.0401641996259 -0.0240941226846 -0.00924593430963 0.0144951658015 0.139682732355 0.0513575494336 -0.0673078606522 0.0303497583616 -0.0453616321674 0.0389720208396 0.00221995430375 -0.00653297566176 0.0112674031323 -0.0361234567901 -0.0272168986818 -0.0602728317477 0.0278662411901 0.0356903699039 
macconnection 0.0779077850498 -0.0195557735241 -0.0528195330119 -0.00622080344523 0.0399178016508 -0.0577133155137 -0.0362183244968 -0.0259762919886 0.0171400983877 0.0470527612978 -0.0209825676537 0.0156475160394 0.0642000713116 -0.035869861595 0.0279971656817 -0.0129455156919 0.0171377490957 0.0327817014605 -0.0049313378958 -0.0452447058699 -0.0479965818655 -0.0477202237125 0.0199937720182 0.00208785327319 -0.0635985683471 -0.0212983785899 -0.00926322380104 -0.0606239794928 -0.00834536718759 0.0353060178515 -0.0628500747814 0.056728849938 0.0395848387539 0.0164176820077 -0.0613964888625 0.0342928026293 -0.0426826045566 -0.0234803515665 -0.037827958268 -0.0521030890479 -0.0297202878376 -0.0486828104734 -0.0101675760052 0.0145019017426 -0.0414051664398 -0.0370363633603 -0.00880630019706 0.00259860541111 0.0167711742605 -0.0374111033774 -0.000803400087937 -0.042671456013 0.0341390850236 0.0670005400352 0.0299630927436 0.00907449947399 0.0250106867803 -0.00183472403822 -0.0520560704237 -0.0287996485877 0.00452678790405 0.0119593329205 0.0313014882083 -0.00968743901689 0.00079626120596 -0.00544844552408 -0.0214232531995 0.0277942126093 0.0121614780862 0.015729857498 -0.0391167957257 -0.0178436733062 0.0457487032518 -0.00381126726094 -0.00766400077005 0.0207514053657 -0.0487893697255 0.0204073006807 0.0207342716391 0.0775439887455 0.0741605575116 0.017443943475 -0.0432883191711 -0.00290016990689 0.00686935418241 -0.0124961791456 0.0681754329426 0.0327892422897 -0.0609631738651 -0.0183744513908 -0.0201522326942 0.013999078545 0.0750971037966 -0.0442110011372 -0.0110296461673 -0.0137574213116 -0.0241017114446 -0.0593826357423 -0.0219404584537 0.0213435044253 
l305d-s5934 -0.0125237448497 0.131906044289 -0.19081070533 0.0580568131204 -0.0353703474443 0.0354786215828 -0.0592933097701 -0.0475873376484 0.0553226349521 -0.0143171786626 0.000844799087448 0.0260792206967 0.0689724064296 0.0275876784879 0.0242178153704 0.0704699313113 0.0574027622035 0.0997302981362 -0.0714852798831 -0.0446795628 0.064524884037 0.0402657912962 0.0314600659115 0.0276446934596 -0.110679372484 -0.0269291445345 -0.091389952663 -0.0609004143879 -0.0751765042729 -0.0185861953169 -0.0238580034074 0.121202373379 -0.0321920680427 -0.00257542292463 -0.0246239187103 0.192275902616 0.00883512886086 0.0704546564608 -0.0406845014811 0.0512111138116 -0.0017387741555 0.0310677910785 -0.0565292819641 -0.0520247379641 0.0179183719471 -0.0446941789729 -0.0363597748706 0.0136072471247 0.0349312914751 0.00997547183393 -0.0216691596394 0.00947914780626 0.07348275769 0.0407385905872 0.0877459407862 0.0736844802466 0.0396991261219 -0.111474019081 -0.0476823390465 0.0121505240569 -0.0128415213459 -0.0531701615334 -0.0193869542408 -0.0423272956515 -0.0625290095014 0.00942443168736 -0.0463837362351 0.0273283684292 -0.00940492770205 0.0367382663657 -0.0343258658291 0.0907136533868 0.0763018592427 -0.066858506345 -0.0123180977007 0.134598269937 -0.0761174397239 0.0595603170915 0.0455138401896 0.0121277917591 -0.0774502048358 0.070167375638 -0.0412534893733 0.081264065286 0.00410419448585 -0.0376122399732 0.0347665405529 -0.031589947194 -0.0812854084583 -0.0557337876308 -0.0389004063865 0.0675631834787 0.0436076081071 -0.0580188356579 0.0425848388753 0.0127868310712 0.0247893356445 -0.0112329707338 -0.116427570346 0.0201222697259 
explantory 0.0409008553329 0.0109015558655 -0.0318900373539 -0.0662593840486 0.0829371979527 0.0185946258166 -0.018127380082 -0.00985378841121 0.0501421927187 0.0547059377897 -0.0282263962265 0.0351955621698 0.0485341852425 0.0229635366558 0.0384668956228 0.00415863363628 0.02588920041 0.0379629635706 0.00945485164159 -0.0668186780302 -0.0166047089892 0.0332566758889 0.0115497398748 0.0741234844933 -0.0937440631299 -0.0741897043157 -0.0261725381387 -0.0527739785341 -0.0138431061186 -0.0135546509126 -0.0481656055229 -0.00945180634513 0.0154000424281 -0.00740813890431 -0.029352272021 0.0143828989525 -0.00178127885678 -0.0187866773296 -0.0266347582826 -0.0566360280558 0.0630305520558 -0.0515659265779 -0.0809965746506 -0.0706149439493 -0.0018273693079 0.0197756558439 0.0190028705491 0.0226371163915 -0.00774260011375 0.0238958520668 -0.000408929172989 0.0469732615224 0.0829140767894 -0.0233981670697 -0.0132242183015 0.0258585213902 0.0428189569233 -0.0165286108155 -0.052022514226 0.00345075058702 0.0476800256226 0.0523808852775 -0.00127913017073 -0.0244339079144 0.00528587005502 0.00469680884451 -0.0517823302559 0.00950346214657 0.0183687177977 0.0734774521649 -0.0213276879023 -1.2221186131e-05 -0.00402289886777 -0.0145960211128 -0.0149973829646 0.0303220252918 -0.0320488808642 0.0316075767448 -0.0347521158573 0.056329706499 -0.0218093957829 0.0295027072841 -0.027461855301 -0.00603396133716 0.0489514052345 0.0523943211876 0.0624853442336 0.000601532622623 -0.0119599703032 -0.0582301376598 -0.023553723908 0.00565425347805 0.00429799038778 0.0571446265226 0.0368802562729 0.0520022841322 -0.00288837672198 -0.0656827730568 0.0205958044981 -0.00122105568311 
problemafter 0.00563061639983 -0.0318203340165 -0.009218359445 -0.0453967707361 0.103909754583 -0.02672228025 -0.0652992807318 -0.0825427010061 0.0202198368346 0.0223357592623 -0.0228333882617 -0.0260113071916 -0.000267861748572 -0.00764277539206 0.0193978286686 0.0249587894167 -0.00373919179126 0.0556240593136 0.0398574241654 -0.073877262573 -0.0202588444896 0.0292441497198 0.0670689330068 0.0816978861848 0.0422964421735 -0.0208964156963 0.0259449081687 -0.0480728623409 -0.00994144450482 -0.0258609520867 0.0506435731298 0.0385971968103 0.0362388545783 0.0130773968965 0.00214914545505 0.0257988669765 -0.0155148763955 0.0166615226313 0.0196754804346 -0.0878871921186 -0.000441367345797 -0.0102929241488 0.0151464202647 -0.0567058906076 -0.039842886201 0.0174346917975 0.0796425861671 -0.0421500663589 -0.0400639332173 -0.0169107290767 0.0125743163963 -0.0485037347387 0.0083524200085 -0.00721192266837 -0.0995575614489 0.0184796712689 -0.0195537211663 -0.0267370205151 -0.0221584921207 -0.0452305213635 -0.0471209347932 0.00347365319085 0.0249598064388 -0.0285936219903 -0.000394500457209 -0.0297124506975 -0.00174140028442 0.00316844655616 0.0124390227107 0.0279545909535 0.0206758280929 -0.0321958470869 0.0922306620565 -0.0172683985229 -0.0059593606168 -0.00130881430686 -0.00192270155248 0.0269274146072 0.00387103247786 0.0350672277118 0.00775747589842 0.0702202109908 0.0776292634874 -0.0439697890032 -0.0227244603519 0.0205723914755 0.0469634959598 0.00474001273158 -0.0583420318018 -0.0923908125965 -0.0590413807823 0.0277379335847 0.131304750721 0.0154898448466 -0.0279449896453 0.0534100733591 0.00676499103777 -0.0601409097291 -0.0231386790736 -0.0130973754835 
r700 0.0665862589384 0.063578945988 -0.012986674685 0.00801040776979 -0.0241684182662 -0.0495429380805 -0.0472603899554 -0.00365148870722 0.0658026359382 0.0138413187481 0.0122567473071 0.0151555472349 0.0308064231467 -0.0555400870192 -0.0909550425626 0.0772227796453 0.0331526418223 0.087469492592 -0.0544403608761 -0.0388511629068 0.113956998484 0.141290964626 0.0636125327313 0.0995325020346 0.0182686435022 -0.0866361784225 -0.00931798759729 -0.167168206653 -0.154603461268 -0.0688740327133 0.0373239144505 0.097994125164 0.00891970003083 -0.0656453330335 -0.021410944874 0.0999644265194 0.0649144603635 0.0785948297962 -0.00588619235897 -0.0123352968961 -0.0310790163067 -0.0108448714845 -0.08381245332 -0.0349934404777 -0.041565214137 -0.0508470780835 0.0297969928956 0.00318982418975 0.0381858884353 0.0220615631695 -0.103749898402 -0.0155657078734 0.024215119425 -0.0105252737875 0.1105598964 0.102419121663 0.0116536220273 0.0393964002895 -0.05809833473 0.0673329845773 0.00311271989666 -0.0292218926184 -0.0901855512438 -0.0970634533509 -0.00359114181344 0.0669607324762 0.0134819470169 -0.0701655551466 -0.113784071483 0.111175922823 -0.0344558923979 0.0210227932378 0.123095494655 0.0107019653099 0.0177673371328 0.0820417040746 0.0430810408998 0.0240677181067 0.0443655129901 0.165268957276 -0.0880851882788 0.120753420131 0.0296832839092 0.0172540697906 -0.0815808548134 0.0461152625466 -0.0155294964382 -0.00911812349444 0.00898962820879 0.0163972712805 -0.0620908838069 -0.0322553801504 0.027424693702 -0.143817765074 -0.0516574379367 -0.0181768815924 0.0550414116354 -0.0555444525926 -0.188631656919 -0.0248705193623 
mozzilla -0.0401745900707 -0.070618574872 -0.0484184846316 -0.142143053119 0.00577469598485 0.00814743006346 -0.0657998516218 -0.0328173229976 -0.0818630468101 0.0213468928756 -0.093711204013 -0.00903476659798 0.0977294044767 0.0871132719215 -0.0349176878443 -0.116350192288 -0.0281657892457 0.0613766132846 -0.178630938194 -0.0772180424034 0.0624915128264 0.121508957672 0.0533881001718 0.0650269270185 -0.0919248366407 -0.113938161998 0.147841615371 -0.0559952134501 0.0864178362022 0.0367514852864 -0.0290088037656 -0.100379064747 -0.0633398132987 0.0706972964773 0.0327653393828 -0.00968882987794 0.0637607467477 -0.0123019304719 0.0411280529695 -0.0406940195415 0.0308352395709 0.039081687119 -0.0934514998326 0.0347023220542 -0.0935131334982 0.00878884907208 0.12320529288 -0.00858216632933 -0.0583058150624 -0.0333979193864 0.118639558744 0.0236583254601 0.0273282045674 0.0691189796304 0.022303641945 0.00408166510902 0.127912990331 -0.0353026353115 -0.0877440037161 -0.196839266967 0.18518293685 0.0835707747274 0.0319376555915 0.133245823572 0.00290418466915 0.0544931141934 0.0958014320377 0.019431827011 -0.0369314217149 0.0221195865886 0.0115429706579 0.0653477603984 0.0616043811828 0.00143814613291 0.000516899689095 0.0127668955958 -0.0524826495744 0.00897726365698 0.0588467148486 -0.0877996744358 0.0329626545951 -0.0389239558968 -0.0548058813912 -0.0851684375825 0.0861488703323 0.146822380011 0.106674541241 0.041636218408 -0.0479798846201 -0.0455731861499 0.0262217918549 0.0688440110781 -0.0360182900372 0.138206850614 0.0196940591105 0.0650181106563 0.0316104569344 -0.0525941810035 0.0249206086129 0.0266803240255 
firfox 0.0626372186205 -0.0795092082711 0.0156417913757 0.0838609067514 0.103222095019 -0.0238986384771 0.0897896562652 -0.0418614284376 0.0909762071981 -0.0451180262281 0.0215698875671 -0.012034041378 0.0870766548916 -0.0483534764875 0.0941844615714 -0.00405729824841 0.0548874712852 0.102383400345 -0.0147198942465 -0.0865907068476 -0.0587006700088 0.0314331852127 -0.0330637826109 -0.0231603878232 -0.0276068832527 0.128752938357 0.0573809213879 -0.0485686770872 -0.0216903894721 0.0777493140275 -0.0319237363162 0.0873022052739 -0.023754189021 -0.0155978944394 -0.00157160047093 -0.014891192322 -0.055945618045 -0.0987103534912 -0.0407851786386 -0.125869937636 0.0855820570639 0.082922210434 0.00525462783775 -0.141981925605 0.0245344865398 0.0373002327742 0.0631999206448 -0.045336725805 0.0197269966911 -0.0514544247423 -0.030615433644 0.119564587073 0.124882335732 0.095038802341 -0.0386518791774 0.0347964850429 -0.00554899966428 0.0619521203821 -0.0855473075734 -0.113251145183 -0.0206601907575 0.016939193854 0.139218182543 0.022507492375 0.0375243796541 0.00228850056545 -0.035598883301 -0.014119543526 -0.00853764583951 0.0821626576495 -0.0512342234085 0.0651931174795 0.0563898717295 -0.0399852809804 0.0234646903374 0.0733124144754 -0.0701618663335 0.042909980717 0.0236781381889 0.127327035779 0.0693895143893 0.0351074832974 -0.0231221379586 -0.0358204811523 0.00575869801298 -0.0367837683315 0.112606890076 0.0476647786891 -0.0350429836534 -0.0788603067977 -0.0695384113741 0.0974839047191 -0.0970498024456 0.0199153901152 -0.0429644779615 -0.0129007693138 -0.0534784731352 -0.0834818083616 0.00522394775917 0.027652486371 
constandly 0.0252598763594 -0.0205551965779 0.0315176213125 -0.0156949580063 0.0163894233169 0.0253076979913 -0.0686142659937 -0.0332055054898 0.0311737091896 0.0720691202222 0.00894007703972 0.0127298010963 0.0193959971698 -0.0403381525274 -0.0141916806523 0.018435317109 0.0470191861345 0.010944291293 -0.0275091169243 -0.0232756373754 -0.0456707067755 0.0385523501618 0.069667610949 0.0535577147431 -0.0321393418965 -0.0291490256957 -0.000137476714276 -0.0142460067251 0.0734124202429 -0.0089452579444 -0.0590871210596 0.0558116915909 -0.00712387207479 -0.0383276592979 0.0112362602586 0.0102044352451 -0.00841119643881 0.0863096835367 -0.0145787201184 -0.0484508964298 0.0361793530832 -0.0384389189772 -0.00706362225649 -0.0227694181684 -0.0735331870314 -0.000211618313462 -0.00298102706325 -0.0709114264795 -0.00178756235342 0.00833687832756 0.0369482065235 -0.00998266246857 0.0039879830146 0.0036878764494 -0.0812966905245 0.0454894492207 0.0182065489152 -0.0152796955266 -0.0520913761843 -0.0165811790774 -0.0286727076238 0.0108269439819 0.0408840288748 0.00179908154264 0.00742949935037 -0.0573918011189 0.0331643877712 0.0306970473751 -0.0145663622732 0.0244642773056 -0.0400535420255 -0.0571181984873 0.0814113737664 -0.0102271691658 0.0131960097896 -0.0123743073433 -0.00723164073404 -0.00247355528041 -0.0176052438516 0.00962237621472 0.00724565366622 -0.049649078288 0.00247354647518 -0.00753075872158 0.00824885424748 -0.0106567060412 0.0463554014813 -0.0052878861165 -0.0236989273107 -0.00538175724289 0.0179248175121 0.0580726296933 0.00127549338285 -0.0242409804304 -0.0276640733447 0.0137510059233 0.0343510064141 -0.00626856002018 -0.0307609092695 0.0173278163436 
toshiba-specific 0.04303234241 0.0364453630749 -0.0480399267384 -0.0202887132918 0.0350062433353 -0.0207509362439 -0.00148970274831 -0.0657918462069 0.0195405707672 0.0214466121063 -0.0472102726386 -0.014096217077 0.034955311815 -0.0268620749188 0.0342443985313 0.00196909429045 -0.0702606553182 0.0028004849038 0.0271490443246 -0.0449254119311 0.00611756927773 0.0705440715137 0.0731173244549 0.0789514747969 -0.0229041148985 -0.0398740614897 -0.0133918736646 -0.0490515652851 -0.0100538984016 -0.00782798929819 -0.0377427900836 0.0766214623566 -0.0604428794629 -0.0378107423823 0.0155783064429 0.0397143579845 -0.0115387370674 -0.0173402064251 -0.00893133090021 -0.0679655970771 0.0557777950475 0.035450742647 -0.0743814935968 0.00442342898954 -0.0516578362418 0.0568955876584 0.00609389011877 -0.00811980356455 0.0176930595191 -0.029189999334 0.0741184925815 0.0295726278114 -0.00772148468955 -0.00546600610562 -0.00283230131627 0.0303795975547 0.0263149288228 0.0171750759873 -0.0239543674284 -0.0407717139977 0.0336088344679 0.0675697818701 0.057491605449 -0.0105339911042 0.00201672600973 0.00340065713603 -0.0180454594172 -0.0357711051763 -0.00821539832557 0.0639265461079 -0.0596705965934 0.00681027950486 -0.00843371192598 0.00240013937701 -0.0598626484753 -0.00510632601474 -0.031660874482 0.0342118506098 0.0157028718665 0.0547717719546 0.00475779955858 -0.00878275225724 -0.0204446867071 -0.0132376415079 0.0561379577336 -0.0226440714322 0.0774809430715 0.018603287639 -0.0702318636979 -0.0234947806921 -0.0392207272467 0.0684518929786 -0.0144175522115 -0.0184381151663 0.0299127278048 -0.0326632131327 0.0888543236853 -0.0531482640605 -0.0596015325821 0.0310007525546 
turin 0.136565430725 0.0133102432397 -0.0992589543674 -0.0831916102551 -0.0336992814279 -0.202142398316 -0.223532892756 -0.142226930375 0.056185019981 0.0904632577979 0.0627869686964 -0.043608279515 0.094087104767 -0.098882450641 -0.0101327100397 -0.0106683743861 -0.0507938747576 0.0555049913945 -0.0435627788421 -0.0332622352452 -0.0241995379403 0.061253789337 0.0212297882907 -0.0301003254391 -0.0802451585594 0.022270489059 0.0617902193466 -0.114934945754 -0.0812092063959 -0.00549364746606 -0.0565638333862 0.0457457973998 -0.0568454726425 0.0016155011325 -0.026896936409 0.0429601286873 -0.018813392054 -0.0898606029865 0.0182304402931 -0.0348320811053 -0.0719964628547 -0.0499643759575 -0.16229127056 -0.103463896041 -0.030989033508 -0.0995363477262 0.0169621434934 -0.0302053352665 0.0981727990265 -0.0643139681515 -0.0189956899749 0.0137580424675 0.0699893649898 0.0843166082472 -0.0124659638921 0.0485310758884 0.0595656726704 0.084128359178 0.0352316834825 -0.0723737153641 -0.0527543217668 0.1334279332 0.0322809803014 -0.0863514054943 0.0995277991206 -0.0800130116226 -0.0154717431345 0.0945854030734 -0.0452098788024 -0.0843743073772 0.0900815554316 -0.122090442528 -0.137911530174 0.0423471268872 -0.0989181538054 0.136913528196 0.0613829689522 -0.00362649844311 -0.0562497729446 0.120586443004 -0.0122454943375 0.0840610116165 -0.0288068957482 -0.0884385570138 0.0343758329233 -0.0463151262465 0.0771749602323 0.0121619975852 0.06478986723 -0.0535941731435 -0.088827105529 0.020160290577 0.0190885381325 -0.112180746881 -0.0363274780073 -0.0198133414265 -0.0401944792091 -0.119038693692 0.0347964934248 0.0117515974884 
semprom 0.0353971511923 -0.0626179107382 -0.0359121369989 -0.00955495278827 0.0908274740155 -0.0385214154697 -0.020745401323 -0.00613542562633 -0.0584185349926 -0.00162525248129 0.024450619646 0.0389217177992 0.00870772419734 -0.0326893602964 0.0162789704093 0.0426408871344 0.0402049875889 -0.0229487444411 -0.0159795576106 -0.129391217853 -0.0765082318918 0.14407143586 0.0860278805784 0.0689750076129 -0.0335969677953 -0.109727496789 0.0412915897703 -0.0452862890377 -0.0882664027681 0.00405349946758 -0.0445520393929 0.0448800875597 0.0311853919446 -0.017591545617 -0.0552698123861 0.0681454070912 -0.0504892612313 0.017552145094 -0.00153095143758 -0.0589374256591 0.00258407397786 0.0308914245876 -0.0351903164328 -0.159413310893 -0.0170445189386 0.00108894957945 0.0307512249921 -0.0179151712832 0.0208517698596 -0.0784279824674 0.0832946539305 0.0482057629245 0.0326356623456 0.0108165967711 -0.0512197113138 0.0149686960335 -0.0301538357738 0.0471221626277 -0.0203285706631 -0.00820050043864 -0.0176677454797 0.0348378407287 -0.0367237908226 -0.00513201753831 -0.0893110656419 0.0365001648451 -0.0290926598855 -0.0413093640572 0.0187197956023 0.0241475207898 -0.038583144213 0.0333650159125 0.0931173758618 0.0160336724445 0.0717505819533 -0.0682279674781 -0.0297728926017 0.0238044179138 -0.0755007304092 0.143536313874 0.00887384835439 0.119546821257 -0.0212801341318 -0.0943985019439 -0.0443501873825 -0.000932149356024 0.0965141263718 0.0515815356315 -0.079374429484 -0.0452238589505 0.00969972172403 0.074502182194 0.138530491678 0.054270286981 -0.0572775836332 0.0352160414185 0.00818912293925 -0.102328473266 0.000145695426865 -0.0425516875252 
nowaspect1 0.0535392940522 -0.0463159544644 -0.0224283364874 -0.0031849086825 -5.78090490706e-05 0.0479613806588 0.000526823283576 -0.0378724000205 0.0332779769104 0.0385159358051 -0.0418546868077 0.0218495557587 0.0897063819392 0.0297159475361 -0.0502119554286 0.0216737967662 -0.000381009987639 0.0269082298719 -0.00921773725213 -0.0403260157164 -0.0109282126898 0.0244948771793 0.00481734688649 -0.00993128878403 0.00560752218393 -0.0482230257449 -0.000675329312204 -0.0744061732648 0.00372420866053 -0.0318631847656 -0.0665291234446 0.00343218728106 -0.0296665431136 -0.0689941735862 -0.0101883397494 0.00906927895378 0.020932478879 0.0467433416107 0.00743913587763 -0.052625266136 0.0485945246948 0.0467563794386 -0.0120288694356 -0.0231983070347 -0.0203342761999 0.064724999096 0.040740386793 -0.029736060842 0.0561367972031 0.0053352902896 -0.0253273325092 -0.00789063913072 -0.0440030257918 -0.0425885414026 0.0142102450067 0.00604414879439 0.031632887389 0.0570234449368 0.00580320020848 -0.124454369523 0.0141772103289 0.0327407999169 0.0319259664714 0.0629057839937 0.00920914840994 -0.0181282719164 -0.0134259163015 -0.0786707208984 -0.0103247786792 0.0259402768823 -0.0512005858495 -0.0247890585459 0.0178642394201 -0.00789726325501 0.0118940914263 -0.0132707286394 0.0266584774829 -0.0353974558406 0.0494138064973 0.0496532815215 0.0290891373545 0.0350674424876 -0.0255486874904 -0.0102107273449 0.0599943035824 -0.0016879048024 0.0832775256905 0.000268004994116 -0.0139816281374 -0.046807236014 -0.0311736506901 0.00908266960155 -0.0105277283765 -0.0279768515457 -0.0130528597147 0.0190559344934 0.00391696021663 -0.0408463903835 -0.0648005525042 0.00805959544108 
unpdate 0.0221433849595 -0.107010773639 -0.0459514762415 -0.0711944335037 0.0334447669072 -0.0336311175229 0.00623534836454 -0.0458168887544 0.0324788915753 0.00545064968695 0.0572021827287 0.0254235679055 0.0583882837803 0.106067798592 0.062382210283 0.019421170267 0.0290338431544 0.0685865060323 -0.0506174635724 -0.116864918386 0.00440677052091 0.000194800968942 0.00168964946311 0.0450829777034 -0.0346928715005 -0.0953170996285 0.0197933352422 -0.0495594577307 -0.0847696533844 0.0325821405312 -0.000243415878768 0.0441842881398 -0.131148592378 -0.00938282206777 0.0209538441852 0.114391694118 -0.0133717664616 0.0297763659684 0.011128822819 -0.019025959222 0.044100362027 -0.00473144904702 -0.00636862152297 0.0689117168092 -0.0279969428523 0.0310477941909 0.0656456797182 -0.0642209861063 -0.0337674919847 -0.010813252509 0.0200585705373 -0.0438944401379 -0.0632596602839 0.0671734078492 -0.0354434405321 -0.0300973285183 -0.0243499423038 -0.0260012950938 -0.0593425082698 -0.0686841575082 -0.00451997560372 0.0478199277198 -0.0467036652501 0.00584282416997 -0.0034042988775 0.0274827434892 -0.130772191934 0.033575668919 0.0725033069379 0.0176941223911 -0.0618824850661 0.0805558072179 -0.0662613080005 -0.0784937043716 0.0316386674597 -0.0165023962689 0.0370393144501 -0.0165414293125 0.0238076440144 0.123826691658 -0.00542744503411 0.0505391354053 -0.0103754717529 0.0295412402554 -0.00751029745114 0.0279273409427 0.086833477198 0.0181934452767 -0.127558767571 -0.0830788288253 -0.0721016844226 0.0556507377758 0.110933674706 -0.10896435054 0.00295671909704 -0.0499610368523 0.0847989559285 -0.0353195187813 0.0060485511798 0.00745502393582 
music-management 0.0562046167558 0.00389552895313 -0.034528320971 -0.0518040804091 -0.0145565917625 -0.0289274349017 -0.0306310853985 -0.0196175719574 -0.039803022534 -0.0136844137047 -0.00817576773822 0.0363216671176 0.0390540371338 -0.0182347554573 0.0585802292684 -0.00137878496139 0.0179489369753 -0.0509933969731 -0.00852818663948 -0.0174645678343 -0.0533666288654 0.0268935600688 0.0684495783645 -0.00581284349077 -0.0780359666218 -0.0468363456106 0.0060311711873 0.0376980016021 -0.0116269470173 0.0102302001915 -0.0210036071409 0.0574598648412 -0.00573884736662 -0.0281090764805 -0.0156871735035 0.0337841610002 0.00028780648083 -1.12927511727e-05 -0.00512280964809 -0.0274075892272 0.0817491807049 0.0292715465516 -0.0488769664382 -0.0271928911273 -0.0493299604296 0.0643042480342 0.0474351355263 -0.0687075197333 0.0134786517608 0.00134170802248 0.0155715754244 0.0242170374102 0.00138516724184 -0.0420629803461 -0.0583010329516 0.0273998882959 -0.0130178023841 0.0172873498778 0.00401480246738 -0.045243142139 0.00905557898087 0.0108691761753 0.0229009109846 0.0154471394512 0.0478080161071 -0.0362430213185 0.040483108578 -0.016813321327 -0.000144820418471 0.0480638521195 -0.0664578353781 -0.0234916978967 0.00136445570591 -0.0172441113164 0.0373720507412 -0.0427550071962 -0.0382179076529 0.0123317969706 -0.0100571050542 0.0926372179547 0.0702782519243 0.0480389720422 -0.0110657125457 -0.0475183609511 -0.0114290309562 0.0314897312456 0.0547367193272 0.0365871997908 -0.0842570626427 -0.0158404125245 -0.0422567081188 0.0338026849032 0.0106480003199 0.0136975770171 -0.0206065878664 -0.0121936739834 -0.00795493708332 -0.0418258218613 0.0367129385605 0.0683432636501 
80-gigabyte -0.0426208953385 -0.034481919368 -0.029349862079 -0.0376632618779 0.0196914444012 -0.00767536520944 0.0143532358758 0.0162592048076 0.0455321494811 -0.0160845566338 -0.0723937752727 -0.0250149985093 0.0322698520652 -0.0291041533928 -0.0182315044337 -0.00407716441715 -0.0719905924777 -0.0111569340051 -0.0456911048065 -0.0204477881438 0.030582483616 0.0272195579042 0.0602589253023 0.0670632811047 -0.0718398763811 -0.0605630277522 -0.00749816558726 -0.0876726346569 -0.149222506394 -0.0755056810179 0.0457359671403 0.134537375174 -0.0074595206847 0.00370872848748 -0.0203625646871 0.125727933004 -0.00341416712582 -0.027172518048 -0.043354686991 -0.101143376633 -0.0585222929276 0.0179615868994 -0.0566347078616 0.000966310704172 0.0766489320226 0.0437314161662 0.0769719586348 -0.0163460760324 0.11791167433 -0.017548686841 -0.0318868064799 0.00522112833635 0.00039132255852 0.00721624372026 0.0176452601436 0.0760656233386 0.0181418791331 0.01622534839 0.0132001982822 0.0822393053621 0.06562843707 -0.0179998677713 -0.0205306175584 -0.0316401245197 0.0809342245569 -0.0192879426282 -0.00891130784232 -0.0417658391879 -0.021864710792 0.0769894232077 -0.077377135417 -0.0446723171855 0.0283529874927 -0.0758125358361 0.00890107898857 0.080772902948 -0.0225970219652 0.0456642015908 0.0165011241496 0.0399283407802 -0.0223649279717 0.0564240382172 0.0278361102474 0.0170690820006 -0.0225686013665 -0.0177489089616 -0.00412488144832 0.0104165436095 0.0429141257498 -0.0889148296197 -0.00221484538601 0.0878305461768 -0.029408096897 0.00170685264668 -0.0457167410097 -0.0430409278912 -0.0198926087097 -0.0106959199135 -0.0866684110567 -0.0702007140367 
similarly-configured 0.0542569704048 -0.0227272270355 -0.051071390135 0.0325141630239 -0.00109788827878 0.00785171002639 0.0175841397616 -0.0189183234778 -0.014500091167 -0.0176543288833 -0.0581601649715 0.0273129915201 0.0387163223413 -0.0363914923674 -0.000319769313266 0.0163876065018 -0.0368369502424 0.010011725881 0.0402583713409 -0.0393358154422 -0.00761879412564 0.0162351047794 0.00435592967266 0.0407270918584 -0.0170065044173 -0.0289708782367 0.0186649804145 -0.0460057040897 -0.00854703531869 -0.0441652017428 -0.0626566022318 0.0427408504071 -0.0241072831245 -0.028815030151 0.00590119567939 0.028741892517 0.0283583794091 -0.0102353401981 -0.0306148594932 -0.0489115278459 -0.0331988510705 0.00397714976493 -0.0177231983758 -0.0262824680316 -0.0216388327544 0.0275267383107 -0.00580772189226 0.00186237780488 -0.0307114497662 -0.0437009256265 0.018730620957 -0.0220929628171 -0.0126804281785 -0.000566376463119 0.0487292209354 0.00966147983261 0.0288923260853 0.0288622132508 0.00498133411036 0.0131270279508 0.0120095930202 0.0167444838866 0.0283304636192 0.00981302994705 -0.0263898657889 -0.0482566037132 0.00398880554018 0.00111081954132 -0.00630617011496 0.000176536265018 -0.00225969974136 0.0416382772679 -0.00670653810609 0.0101167400347 -0.00889092417836 0.00500198802249 -0.00357571750499 -0.00101222400078 0.0475743852839 0.0330763412631 0.0786001894625 -0.0185417756865 0.00651019392588 -0.0192027052745 -0.0659681476131 0.0206844514011 0.0629693465656 0.00628846916632 -0.0270562879171 -0.00753358844179 0.0199855627679 0.0324303271246 0.031838382317 0.0046411774007 -0.036675028893 0.0255002879726 0.0123659458873 -0.0169240533937 -0.0225928337993 0.0113770163993 
better-configured 0.0704775802416 -0.042788966358 -0.0329224046966 0.0265331204934 -0.0178161946239 0.00484318095646 0.0167420437804 -0.0119132260486 -0.0459112806816 0.0164584934286 -0.022002249484 -0.0118881181108 -0.0114632713345 -0.00551669970033 0.0184472587784 0.0113907509959 0.0147781662918 -0.00670839519121 0.0362152533225 -0.00994534916354 -0.0502002806091 0.0435357516659 -0.0143596514481 0.030799515076 -0.0178403766719 -0.0227214898191 0.00670762837646 -0.0250258171066 0.000304895971403 -0.0236723645853 -0.0451993995536 0.0206910633991 0.00524422525682 0.016558503045 0.00583251826917 0.0289829545851 0.0227781530854 0.0177560906254 0.00627957565826 -0.0348980703354 -0.0434587471387 0.0318149362297 -0.0407645239924 -0.0447137054154 -0.043430229254 0.0269707814397 0.00440835666333 -0.00790941014199 -0.0390440537375 -0.0484970467541 0.0330052243629 -0.0108347376481 -0.0284633204154 -0.0183946047521 0.0719352688309 0.0418071464382 0.00266999687343 0.0100446918883 0.0255589041267 -0.0200835052172 -0.0315343880866 0.035472212012 0.013622074728 -0.00654156288629 -0.0444969160907 -0.0624058628742 0.0163749384185 0.0256508345299 0.0234380813954 -0.00841767940885 0.0410444149452 0.0338120122489 0.000560863093462 0.0272386095734 -0.0217428274481 0.0151112159701 0.00712621371615 -0.0139691529848 0.0044878399766 0.0515458141274 0.104149617315 -0.00178536605972 0.0177501453987 -0.0153019882826 -0.027863286144 0.0468342358925 0.0619457703749 -0.0065609569664 0.0156210219186 -0.0424441625585 -0.0136946998172 -0.0086638496817 0.0494626276979 -0.00416519976131 -0.0595398036437 0.0025743510916 -0.000808006101154 -0.0320344220176 -0.0235296319516 0.0411889808032 
laptops/mobile -0.00608976344437 0.00249024143963 -0.044286525193 -0.0251416422331 0.00962626282316 -0.0102213475816 -0.0255628587998 -0.0216161885539 -0.0194344738759 0.00497477112722 0.0196342894179 -0.0311354482825 0.0423228180701 -0.0111567227247 0.0519321301187 0.0151809034293 0.0094856565948 -0.0279770987579 0.0142612467661 -0.0137794572825 -0.0249969241729 -0.0184169505775 -0.0054821257143 0.056806196704 -0.0806066312214 -0.0584774750363 -0.0128616973679 0.0132417847168 -0.0415041690774 -0.0204843718463 -0.0818933738355 0.0296738649247 0.00375054593947 -0.00640958105178 0.00357102054542 0.103811662964 -0.0312890350575 0.0578312878818 -0.0297456808482 -0.0383064845439 0.0275942655462 -0.083247212086 -0.0296722615304 -0.0201927029606 -0.0135578026869 0.0169659431758 0.0325991567958 -0.0553199915314 -0.0127757572168 0.0332280842892 0.0100724860063 -0.00618739804701 0.0415055274588 -2.58973835033e-05 -0.0255421733667 0.046907711511 0.0685056161696 0.052775166553 -0.0262458628371 0.00812798989803 0.000850314548287 0.0382005533403 -0.00215320234912 -0.00104908300189 -0.017351945243 -0.0220616049237 -0.0229732663975 -0.0338186881793 0.0268969453967 0.00382898217992 -0.0464358608258 -0.038031156624 0.0374146299842 -0.013389916251 0.0149183981234 0.0389345014367 -0.0709746546549 0.0454013125089 -0.0440911791659 0.10727062943 -0.00906817602842 0.035979582701 -0.000898618154773 0.025267362 0.0257751459513 -0.0300542976097 0.0578930978829 0.0352524697951 -0.03679478166 -0.063925408923 -0.0482669808056 0.0592901219142 0.00494052676558 -0.0297880720992 0.0152759261134 -0.019964263508 0.0541169595925 -0.00695274375843 0.0285531299748 0.0333150921403 
reallythe 0.0630480960264 -0.0549354656612 0.0160293193403 -0.0121203691685 -0.112913598936 -0.0269964140386 -0.000955639590872 -0.0592180341869 -0.0704847729129 0.0113027680538 0.00365857706141 0.0675620438024 0.0680005445131 0.0110947387374 0.0380784661615 -0.011103323249 0.00230902231026 -0.027853775487 -0.0369707839846 0.0334609752588 -0.0482163563583 0.058981298671 -0.00868771629609 -0.0398255592899 -0.0195140588141 -0.0735018111838 0.0130022188685 -0.0366004220979 0.0838659360259 0.0155510478003 0.00535235654125 0.0147030286689 -0.0438791057919 0.0164521837453 -0.0156245178751 -0.0248116682152 -0.0462964133629 0.0361267150575 -0.0242269581171 -0.0383753204316 -0.0658579954212 0.0543167434798 -0.0379139409205 0.00060179804953 -0.0126599098003 -0.0205755997828 0.0436089114799 -0.0840994241367 -0.00429790014263 -0.0204619177644 0.0276643747739 0.0863009794927 0.00610914132002 -0.0108868195499 -0.0535920502577 0.0762857223012 0.0120768691443 -0.0221241047542 -0.0502911707852 -0.0878670192816 0.00122964341936 0.0650417789968 0.022345333547 0.0229181816235 -0.0242925960492 0.00103533872294 0.0195164579008 -0.0817956188854 -0.0304713978694 0.0409152767684 -0.0190283175156 -0.0598986439113 -0.0231493184011 -0.0892399275959 -0.0416121456138 -0.0366609769534 -0.0150232931477 -0.0267293514497 0.127942988148 -0.019571317731 0.00697888848432 -0.00132863384889 -0.0760875631405 -0.0624536947292 -0.0424803680402 -0.0213580875894 -0.012097600895 -0.0286056005894 -0.00576771942963 0.00161513367349 0.0152976990281 0.0606802726951 -0.000466260733023 0.0676310438087 -0.00716904886554 -0.0256040775457 0.0460243755562 -0.00690564984317 -0.0472588149633 0.00331010915766 
cliick 0.0687567173378 0.00164650926929 -0.0683613170858 0.0516407231573 -0.0716537656553 -0.027043471561 -0.0537511242019 -0.0667732906541 0.0122008787698 0.0289871361457 -0.140175175615 0.139306926364 0.0694523537187 0.00114444958566 0.0874193544193 0.002124997656 -0.162081920526 0.0389714828481 0.0739299136299 -0.0704569631943 -0.0646828722895 -0.0265667380179 -0.0412242783866 -0.00880794531784 -0.110704996219 -0.00278784940325 0.0520035737015 -0.0119790430821 -0.0239006380257 -0.0536522727419 -0.0288723851547 -0.0778829624754 -0.0745887644174 0.0722911164062 -0.00744149834372 0.0521253254408 0.0496914250051 -0.030745536083 0.00874569481676 -0.0732929116592 -0.0289236348791 -0.0339566373915 -0.134739935083 0.0253359273988 0.0799702080584 0.0891996064329 -0.000245503958497 -0.0103091452879 0.0119131338822 -0.0892089024245 0.0682187167698 0.00699650146419 0.0409855791331 -0.128367434333 0.0218433870682 0.0968684516793 0.185544703516 0.0102297246996 -0.00913974558295 -0.106890446147 0.0953510522924 0.0796585075871 -0.0667840178549 0.0645622176476 -0.0178179903273 -0.00670294687281 0.00615029660806 -0.0926317072182 0.0709730609289 0.0846087062508 -0.0821266601873 0.042095679231 -0.0575028714988 -0.0652370978856 -0.0477643258467 -0.0993610011935 -0.102718450924 0.0201292393666 0.0707743167908 0.02183698516 0.0759641595344 -0.0326105323549 0.0215405881735 -0.108445396441 0.0763167636727 -0.00712169723266 0.0477789736808 0.0117116940323 -0.0085228974226 -0.0722125649743 -0.101627498343 0.0591817723839 0.02337873862 -0.0029816482209 -0.0249751876961 0.0250354842834 0.0509294296219 -0.100780703028 0.0685704175257 -0.0402727960061 
cusromer -0.0191361826249 -0.0203024388691 -0.0930344258641 0.0205379272076 0.058094247327 0.0291312963197 -0.0459780515613 -0.0675911202793 0.0169398800351 0.0205255976959 -0.0627111482121 -0.0238114588006 0.0913895865997 0.0482006504393 0.0330471090004 0.0236238800168 0.0209164419266 0.0580239899586 -0.0270299450464 -0.0418515659153 -0.0040950360845 0.0275821534629 0.0368040343057 0.076354881052 -0.115535769072 -0.0503305364344 0.0395663377318 -0.0904789283405 -0.0179059972153 0.0384180097108 -0.0174658728559 0.104410956799 -0.018986887114 -0.00546624220517 -0.0678313394365 0.0663164594168 -0.0115611609186 0.00497468436649 -0.0149223258955 -0.0861113505223 0.00864803541109 0.0181250965407 -0.0929117591568 -0.0986918990674 -0.0243701117689 0.0273627103465 0.0607021089768 -0.0347531544888 0.0590948899606 -0.0151470979058 0.0616354436506 0.0348472657192 0.0385031875299 -0.0284394265154 -0.0346579531456 0.0139561686684 -0.0554130477 0.000146328849835 -0.0519716794131 -0.116469113814 -0.0141836123768 0.0638858499542 0.0211569104454 0.0506702112823 -0.0159149787138 0.0325690189282 0.0399816673608 -0.0159683135543 -0.0552713734236 -0.00554910982915 -0.0480261243391 0.00373397261845 0.0237069960876 -0.047274337049 0.0141693264227 -0.0251201525633 0.011112100986 -0.00318269918308 0.0563524336477 0.117977082905 0.0036472138129 0.135394037917 -0.0130177114987 -0.11681394127 0.00595958472375 0.0472785925273 0.0767712390273 0.0601676765557 -0.0620307235706 -0.0553613825127 -0.0107852982117 0.0870758132082 0.0813999746257 -0.0309329100467 0.0268608075112 0.0221389681405 0.0241540896826 -0.0590933378452 -0.00932199900312 0.00823459922711 
drivers/applications 0.0633815091455 -0.0203390898173 -0.0792674407554 -0.00196074430438 0.0333117847976 -0.0170938576253 -0.0455862012432 -1.61304970339e-05 -0.000927590909563 0.0612921893667 -0.0376007025922 0.0134584429972 0.0729523014899 -0.0172633780898 -0.00155244964484 0.0225395266078 -0.0162970749452 0.00536171005867 -0.0332377567258 -0.0725773878992 -0.0277608559212 0.0581403219494 0.0616928748137 0.0536350095797 -0.0759117131118 -0.118609476039 -0.0321657981709 -0.0646144842401 0.0133514506617 0.00897092835484 -0.0329418289803 0.0584984692582 -0.00431607371627 0.00162083562267 -0.0621706463301 0.0734619067096 0.0114631959681 0.0316003140693 -0.00304041816799 -0.00711428190995 0.0193058587106 -0.0294792491862 -0.0356336075343 -0.0352778630376 -0.0179859067011 0.0434152487063 0.000182428753157 -0.0312824941766 0.0984523856747 0.0252084519503 0.0129969242977 -0.0138889034497 0.0260098055218 -0.0142769524518 -0.049505686959 0.026603902548 0.0299496480391 0.0194510388906 -0.0416014093284 -0.0161026512723 -0.00928455524261 0.0207690986879 0.00274270514231 0.0137498561567 0.0056638702813 -0.0134590667365 -0.0163953319339 0.00984176964248 0.0335471034089 0.0211087318262 -0.0791010968039 0.0181896330963 0.0314499025878 -0.0351603974121 0.0205601619505 0.0159253625721 -0.030325375998 0.00318544999062 0.0142324359144 0.0116089805601 -8.45639373809e-05 0.0180376109623 -0.00504132990118 -0.050154515054 -0.0222675804039 0.0149627262888 0.000995328181657 -0.0138493356134 -0.0128971954492 -0.0440700066343 -0.010891665213 0.03050095018 0.0324404971667 0.00315196847974 -0.0115212795163 0.0339680936663 0.0148969313085 -0.0442495504203 -0.0165575675749 -0.0166530347008 
sexyy 0.0683915645653 0.0450430752874 -0.044601276568 -0.0253869866677 -0.0250755385847 -0.022203640155 0.0241685398152 0.0573470701576 0.0876860562003 -0.00717829926515 0.158471922317 0.0619599677022 -0.0232011885792 0.000743949413854 0.18407290911 0.0315950848512 -0.0231058882504 -0.109228694214 -0.172618414579 0.0245773874271 -0.0910983077176 0.0387908305734 0.0500170757503 -0.125583939792 -0.0457286972782 -0.0166229311266 0.154850923331 0.0823131611649 0.0608407804615 -0.105400694919 -0.160083921678 0.0373047813514 -0.0444495790976 0.000120799928108 0.069539963888 -0.000124129870309 0.0568930725155 0.0660477686123 -0.0520481728547 -0.014917442567 -0.0664500168757 0.191851408221 -0.00453924905789 0.0153506433206 0.0550788738111 -0.0280419017143 0.136845930043 -0.17327866235 -0.0304468382653 0.00806049972079 0.0160995168673 0.132210929896 0.0496122253729 -0.0241152731964 -0.0896036027879 0.0616856681954 0.0304519353912 -0.0113223242656 0.0884252530775 -0.10190194593 -0.0455734269069 0.0486501267936 0.0926588461773 0.00404443808706 -0.133623186743 -0.200949404497 0.0854732236936 -0.016951467166 0.0127043009777 0.0345890330432 0.0617551681078 0.0233527379693 0.120297539435 -0.0205688590251 0.0968011040523 -0.0615442189935 -0.0293727868522 0.107051300376 0.0435745293331 0.199858900813 -0.00668434650765 -0.0104482941242 -0.0481330744538 -0.115357643057 -0.119648039122 -0.0713252627361 0.0649223054248 -0.00653545650775 -0.154571426115 -0.0501234257502 0.0323969299039 0.040395729535 -0.0471954258738 0.126842439083 -0.13653262956 -0.0727090099497 0.0341274833101 -0.0104160792996 0.145378077357 0.0250278362662 
knowlede 0.0505930709981 0.0156821159947 -0.0268114136926 0.0377626924687 0.0690526459097 -0.0668965265472 0.0598410991566 -0.0419473132043 0.069298625475 0.0369684920284 -0.0100923664241 0.0928271409734 0.0165744009807 0.101904081801 0.128256416001 0.0327033894854 0.071957965891 -0.0161448116721 -0.0274311938409 0.044199311089 0.0249185597978 -0.00454853005773 -0.0222169555993 -0.0145583376974 -0.0142436247703 0.000533681256131 -0.0167789477825 -0.0719707180228 0.0164839206823 -0.0660330305058 -0.0243235543152 0.0158946515868 -0.00945297886616 -0.0302931158753 -0.0285135718777 0.00707853928199 -0.0407061698459 0.0101301381593 0.0324075514828 -0.0298277189904 -0.000985399436566 0.108028463461 -0.00991481865832 -0.0204307552544 -0.014586375251 0.115123816652 0.106202962616 -0.0485723698225 -0.0175969044409 -0.0464822926726 0.0326172726187 0.0540915895104 0.0601846021371 -0.019555654936 -0.114599589622 0.0230277753014 -0.00267598920067 -0.0521462298945 -0.0683246267283 0.0283248323177 -0.0243204014164 0.0607018706988 0.0164886162235 0.0284980344401 -0.0414310121003 -0.00760723255003 0.0328477927912 0.0461583630997 0.0535946101794 -0.0475853321898 0.0437153647767 -0.0341429131738 0.0762224640989 -0.0151584715766 0.055221907926 0.0054432601026 0.0376448928526 0.0311537128964 0.0353767734048 0.0834310396885 0.0396608439581 0.0785711827939 0.00678079593353 0.00338223825551 0.00296753958121 0.00760793757272 0.114848496147 0.0307049548311 -0.0560962497754 0.016858097147 -0.0401478685237 -0.055337789763 0.110122617289 -0.0443958314751 0.0223850164496 0.0190097755917 0.00252813832563 -0.0991316403371 -0.069384292513 0.0215833552322 
distan 0.000601984149718 0.00440778618479 0.00487641846823 -0.0220794453119 0.100787802255 0.0106283152457 -0.0783655360738 -0.0543620733667 0.0530820253 0.0449368916063 0.000130640398668 0.0123746641466 0.0791170479185 0.00471295865555 -0.00678580009282 0.00635374976597 0.0867156522798 0.0443972250336 -0.0278128950757 -0.0800980047005 -0.0296611953762 0.0637396896196 -0.0331076257786 0.0918650014575 -0.077180552161 -0.0970028831071 0.0081641821864 -0.0984933342542 0.036268326618 0.0479408020656 -0.0690242559472 0.0888524844925 -0.00877973166804 -0.000851432961378 -0.0649954717314 -0.0136638321492 -0.0253323430593 0.00661363280358 0.032605890183 -0.0776075712513 0.0805706365481 0.0237809140958 -0.0502525631714 -0.0192736317877 -0.0324170122532 0.0196794455979 0.0579386735007 -0.034934438322 0.0103987819879 -0.0352126320945 0.038971039219 0.0595575068225 0.0909830347802 -0.0615009237025 -0.0378928767071 0.0137065065552 -0.0668384549569 0.0217460394915 0.00656833079757 -0.043853727311 -0.0472657285086 0.073800174443 -0.00186172787426 0.0467313071438 0.00634670012092 0.00599012975087 -0.0220899063909 0.00861107274796 0.00954994663997 0.118207938729 -0.0531153416522 -0.0373258438461 0.0284868791408 -0.00449598043885 0.0211158974293 -0.0374691689337 -0.0318531136025 0.0528885242857 0.0168035961621 0.113199849062 -0.0424120267016 0.025180479661 -0.00825268094409 -0.0802872186825 -0.020923945049 -0.0134260566104 0.0846496725933 0.0208533796806 -0.0710735866932 -0.0386708643408 -0.0138658470027 0.0744830559356 0.110954150672 -0.0165132670256 -0.0192456623128 -0.0443456755616 0.102181833592 -0.0807625284701 -0.0101133658148 -0.0383684591394 
reinsalled 0.0188570611288 0.00985952132979 -0.0246598909338 -0.00627046144834 0.0157373737474 -0.0463902965377 -0.0363917448112 -0.0640315099151 0.00503369231602 0.016530475024 -0.00794406575295 0.0121190115585 0.0509378614052 -0.0241147209071 0.0509116728694 0.00231031269475 -0.0226655301325 0.0427515049032 -0.0198030093353 -0.0731544406835 -0.0502420330028 0.0363372238341 0.0947914380164 0.0891659546542 -0.0695130341372 -0.0890699844493 -0.00245033160633 0.0100473648519 -0.0137364992765 -0.0107826777732 -0.0378108552156 0.0625109943976 -0.0167573519916 -0.0502223708505 -0.0390373775079 -0.000271830543598 -0.0323706439941 -0.0228674291021 0.0194247347548 -0.0262663236387 -0.0272554816631 0.00392933173971 -0.0837781090822 -0.0849033946484 -0.0517492991682 -0.0397044885451 -0.00090786406521 -0.0405977853114 0.0298429205982 -0.0139367664616 -0.0111603438866 0.00478252853516 -0.00286991123529 0.00728727907052 -0.0520526261792 0.0238753951487 0.0215844642603 0.0332033349307 -0.04534294859 -0.0793335749636 -0.0162534919387 0.0616320944981 0.0361380057837 0.0332200127675 0.0187610494263 0.00744324012788 -0.0207536341777 -0.0199532879105 0.0445176699843 0.0415025881733 -0.0177438567588 -0.0454000042072 0.0221691401816 -0.00800356546237 -0.0448129575329 -0.0261305166511 0.00258832985254 0.0296833332576 0.0435191132681 0.0436004529618 0.029864185485 0.0361043135444 -0.01110336794 -0.0824496065102 -0.00372657702796 0.00428223394302 0.0762741327215 -0.0248860999998 -0.0471533865288 -0.0234316980638 -0.0706249952006 0.0341270198728 -0.010932792552 -0.0185448452893 -0.00516731245097 -0.0110921486202 0.0120639023583 -0.0129632919798 0.000336303922913 0.0447693728576 
iweb 0.00526634844609 0.0671117603638 -0.00793397135124 0.00301146327203 -0.0756606065575 -0.0149759219307 0.0490840140955 0.0580130749636 -0.00240479821784 0.0621354834369 0.00303585099529 0.141213715163 0.0593462344905 -0.0731757342415 -0.00942574857715 0.0171042214228 -0.00384207299785 0.00784902404346 0.00825372318216 -0.159550960335 -0.115880521381 0.0580309856892 -0.0242242936486 0.047120761104 0.000284010007755 -0.0408916147642 -0.0592911854239 -0.00600325119543 0.00219167574465 -0.0351881166494 -0.0545488352488 0.0542606110075 -0.0828278577105 -0.0345880675272 0.0151355983103 0.0561219108616 0.0153840993255 0.0868024031624 -0.0190114443159 -0.0304654928129 0.0197415691341 0.0239192636374 -0.0398037934818 -0.0996277008731 0.0136851468835 0.0573962597109 -0.00845474724699 -0.0263975053457 0.126090718576 0.0237801192483 -0.0186587199488 0.0136170725754 -0.00924584783435 -0.00987669764901 0.00455797442838 0.0219769706955 -0.0568330872282 0.0135535722242 -0.0399284872988 -0.0818789787784 -0.047882962992 -0.0255690686278 0.0891289050455 -0.0378246152276 0.0169034584775 -0.025583043818 -0.00432705072543 -0.0147666308085 -0.0248548438103 0.020393820969 -0.0581907605562 0.0259061446841 0.0339564493717 -0.0305994253475 0.0371070895709 0.0442855368482 0.0194964718693 -0.0999397227286 -0.00440759846647 0.0467823522673 -0.00638179787146 0.0160578952073 0.00587047536313 -0.0485925242128 0.146890214243 0.0809507304988 -0.0145108444661 -0.0743710329162 0.00708488520879 -0.0559358848118 -0.106107875255 0.0251699835001 0.0804647301793 0.027276871426 0.0193239448711 0.0408075913864 0.101950447664 -0.0553364326672 -0.0420578897094 0.0348335659592 
exaspect1 0.0775525597494 -0.0736933588546 -0.0138373809357 -0.0129158249566 -0.0286536521722 0.0194313475777 -0.0167845324584 -0.0241662387672 0.0757961324568 0.0651899899493 -0.0454993909418 0.00499961134468 0.111649071281 0.018925726504 -0.05022116512 0.0337470965812 -0.000877656981565 0.0478249677554 -0.00078872633208 -0.0403289077401 -0.0016555267549 0.0164802334277 0.030564566167 0.00694695654468 0.0144926875615 0.0109113535024 -0.0215701243759 -0.0940988921743 0.0191971539104 -0.0422568909461 -0.0603854914544 0.02509498251 -0.0281190907859 -0.0726318473811 -0.0346930685252 0.0135321837278 0.0191875976108 0.0466529173386 -0.0175406597443 -0.0629063197352 0.0647928334811 0.0541464066214 -0.0306143663728 -0.0220013668463 -0.0513213912017 0.0360337028392 0.0553169070349 -0.0260729880211 0.0768964500743 -0.0343332225636 -0.0246450460366 0.00173755643814 -0.0436363795168 -0.0416883226534 0.0352446473262 0.0180407268433 0.024210282469 0.0921051305456 0.0379112949985 -0.133070096389 0.0108629981769 0.00460623210417 0.0351040655092 0.0690273916458 0.0140884684761 -0.018664360174 -0.0433506921004 -0.0919369997035 -0.0166229400985 0.0367362510619 -0.0691951770172 -0.0778064459637 0.00404611682659 0.0213696976664 0.00495462793857 -0.0346985090448 0.0125727989445 -0.0225633810903 0.0608327804108 0.0195095351567 0.0238828254073 0.033435632255 -0.0538422784219 0.000655916292715 0.0622836762671 0.0295316601792 0.0858746932743 0.0219465122206 0.0166462981975 -0.0753220619266 0.0402183434016 -0.0246279529104 -0.0247829523722 -0.0576039298934 -0.0437961802118 -0.0139783165711 0.0335805953538 -0.0391653295801 -0.0924683432378 0.0409442798416 
full-inch 0.00362442435095 -0.000450806053815 0.0776350423275 -0.0481898117876 -0.0005203104888 -0.077120038936 -0.0415623701844 -0.0648461979723 0.0751494599167 0.00728103089869 0.036399562295 -0.0445338941857 0.0466430511928 -0.00567676172413 -0.0420006461859 -0.0534212017827 -0.0101749756228 -0.0143013745423 -0.0129069309133 0.0965345129774 0.0199709728542 0.0623712100821 -0.00468806281758 0.037930745052 -0.00973235999699 -0.128365183967 0.0436861509332 -0.0519685435806 -0.0582282601037 -0.0875840815084 0.0446792053438 0.13685430878 -0.101604749554 -0.00382211244386 0.0648551669859 0.0663124496114 -0.0300825847894 0.0253866711563 -0.0814279735865 -0.105760963976 -0.0324667426919 -0.0384985563767 0.0444138663368 -0.00908120008525 0.00743770261922 0.0356540335013 0.0536321516164 -0.00895672365823 0.0291460746323 -0.0935336693736 -0.0308669874627 0.0576409459735 -0.0372997835453 0.0512579858143 -0.00232211226908 0.0175238721054 0.0101681117471 0.0886134940493 0.0695765024625 0.0025505248063 0.0601215390424 0.0225684861382 -0.0496456831104 -0.0796714475091 0.0380659907971 -0.0334724197233 -0.0162326195941 -0.0966288094054 -0.019220858738 0.0846369129282 -0.0493470578238 0.0230724354305 0.0843671147492 0.0292440905584 0.0154198608877 0.0779122118073 -0.021014468344 -0.0315297397488 0.0082489604413 0.0441234957686 -0.0590295424472 0.0264900226095 0.0135742865299 -0.00777517487894 -0.0174579359887 0.0033043374368 0.104278537681 0.106169752748 0.0543340402259 0.064959387848 -0.0562614181067 0.0394705703504 -0.0225610590744 0.00372896192084 0.0581113176424 0.00833315065274 0.0452342570562 -0.0884409250036 -0.0360459817219 -0.0357570701286 
gbthough 0.11920539822 0.0231575369016 0.0408477517297 -0.0339107806247 0.0683572607118 -0.0508239090214 -0.0282728251126 -0.0402217838397 -0.0616883052463 -0.0531107074146 -0.130052472146 0.0219439711738 0.0142686261502 0.0323178513107 -0.0345434803129 -0.0423518791163 0.0103895806534 0.00936422842225 0.000760871542221 -0.00428701423599 0.0094928266224 0.0162783404175 -0.0548999332226 -0.0622065047609 0.0390770368865 0.0198644477702 -0.0524535641711 -0.124949341884 0.040112460821 0.0657182188752 0.118650869679 -0.00206498519421 -0.0609015926995 0.0802020166979 0.0279362535641 0.100233127812 -0.0200665507271 -0.0192310308972 -0.0134711670071 -0.0834841726028 -0.00383157163471 0.10203067033 -0.0674823189342 0.00906919307302 -0.0817400035092 0.0612885768648 0.0831396384137 0.0382524745308 -0.0789898148585 0.00140841311745 0.0248125173361 -0.0147304515615 0.0824548198928 -0.105050627302 0.000330200105566 0.0247660677624 0.0557325482578 0.0595323875916 -0.0221005453023 -0.131667266284 0.0115822417347 0.036345411388 0.00134713866994 -0.00916735670351 -0.0453076361747 0.0210218364277 -0.0395372379634 -0.120245611679 0.039088608967 -0.0624867481985 0.0527033637424 -0.00303424239451 0.173175003653 -0.0575733851616 0.0356524393719 0.0138796778591 0.00955570106523 -0.11506859565 0.0504238395097 0.0564876644934 0.097316185213 -0.0453697644287 0.0645338018767 -0.0238048820676 -0.00802241310823 0.0474516937042 -0.0214763964846 0.0225827257218 -0.0565116340722 0.0128149325347 -0.0883008304435 0.0780128592139 0.0416684514256 0.0985811335632 0.0351761398877 -0.0917833444062 0.00390821266967 -0.126776066459 0.0528867332815 -0.0588091628964 
itlaptop -0.0269065460434 0.0171816467251 0.0162385657388 0.00787841150777 -0.0477527663287 -0.0425785079461 -0.0459610571444 -0.0154567113383 -0.0459909442134 0.0428412528708 0.0406416814496 -0.0329525335247 -0.00774486568803 -0.0135589262677 0.0234122078821 -0.012318123775 0.0590266306385 -0.00877615036171 0.00861192386982 -0.00816596034354 0.0295098350982 -0.0382761466784 -0.0195288721625 0.0664944658757 -0.135725720584 -0.0654937428686 0.0148455107188 0.0196731634352 -0.0357438693312 -0.00279614730944 -0.0973665640286 0.0233212562696 -0.0148378834207 -0.038228039115 0.0295045334287 0.0864855878913 -0.0414198348329 0.0837193935128 -0.0269481189537 0.0021554864577 0.00358636178416 -0.153811482113 -0.0565504544973 -0.00488350351299 -0.00622501903166 -0.00854974472252 0.0795076023356 -0.128132134026 -0.0346327612134 0.00090187228129 0.0383581346615 -0.0203878732845 0.0887873646181 -0.00234788231074 -0.0135380973182 0.0855628398861 0.0328638281455 0.0520340111257 -0.0129716487219 0.0228927365294 0.00446989913477 0.0880276428775 -0.00923891046315 -0.0238504222816 -0.0482879807417 -0.0192883495811 -0.0176801796788 -0.04733759388 -0.0228175212978 -0.0169706355987 -0.0204164355618 -0.0818513530671 0.0611508438992 -0.0332144732338 0.0284976441647 0.0750966795447 -0.0688121421395 0.0464710343049 -0.0471334817576 0.0266933433407 -0.0583059799851 -0.0212049561356 -0.0110967160534 0.0833908140729 0.0803659504405 -0.0355570152834 0.0225411616029 0.0654515632454 -0.031167718644 -0.0638018712044 -0.0535186550737 0.0598865107688 0.0574154858303 -0.0045901372879 -0.0038192258099 0.0171114976549 0.0639889622156 0.0528843316967 0.0870612902239 -0.013975221663 
starting-up 0.0103590547449 -0.0476640649728 -0.0407398359747 -0.0494674945239 0.0247917683852 -0.0171639711933 -0.0121073226014 0.0304620127904 -0.00483925424258 0.00817813740175 -0.0568974803923 0.060926018611 0.0717855235147 0.00856214036782 0.0255568925649 0.0256945303434 -0.0435523626098 -0.0770869160306 -0.040322877929 -0.0345024051684 0.00365591558373 0.00995258527117 0.0319856524651 0.00867684075776 -0.00822455422874 -0.0780659850384 0.0258848445208 -0.0467400501993 0.0188864395987 -0.0173589367535 -0.0446064923606 0.0248082181555 -0.0122699853481 -0.0310597199911 0.0226818510579 -0.00971342441055 -0.00416113776742 0.052534520167 0.0277871257685 -0.0424770443049 -0.0115207685609 0.0389803205542 -0.038275790537 -0.00990996279534 -0.059921582026 -0.00292432328686 0.0636999037978 -0.0826511979285 0.0192093021289 -0.0354811718546 0.0375277960748 0.027137413611 0.00832026072607 -0.0441167814249 0.00575970785374 0.055847269172 0.0419842086747 0.047216857973 0.0225953363554 -0.0665995844166 -0.0187863727479 -0.00600031538058 -0.0138159294086 0.0262693973253 0.0724787451901 -0.0525590117996 -0.0154821499019 0.0423604816281 -0.0419835779186 0.00623566107857 0.00244651207364 -0.0283971213957 0.00801049569756 -0.0599539652198 0.0203161110088 -0.00561609606114 0.0403378368098 0.0232102536437 0.0583531722816 0.0594605807183 -0.0455762892827 -0.00382626063058 0.0261239861818 -0.0847240185672 -0.0231620466716 0.0260047963518 0.076554047984 0.0280884524263 -0.0563594760147 -0.0312422446229 -0.0481645930045 0.0331951021473 0.0101991532978 -0.00231889209138 -0.0566179804079 -0.0157307557876 0.0231890336754 -0.0313607364267 -0.00546960134181 -0.00823944600392 
promotion/offer 0.0749951965137 -0.00624178079878 0.043740913403 0.024077411684 -0.0181153768751 -0.0276999529584 -0.0463268561422 -0.00504449954585 0.0434298978584 0.0270087920233 0.00141307864145 0.0341233984081 -0.00262947743638 0.00296921980525 0.0392214305537 0.0450742580696 0.0200683872139 0.0300220655699 -0.0430945548284 -0.0406226577377 -0.052121820137 -0.00582529812664 0.0546724120981 -0.0102649499237 0.0224392877895 -0.0764849292981 -0.00930746233433 -0.0767473205972 -0.016079401325 -0.00229582188107 -0.0122803554567 -0.0426186923216 -0.00413289392276 0.0126317350627 -0.0534779970549 0.0128131058296 -0.0148736930778 -0.0148802698188 -0.0313392341214 -0.026242979586 0.00764986931067 0.00111875635462 -0.0323416412329 -0.0921179257483 -0.0052992471043 0.0337367965724 -0.0233347143912 -0.0278155558501 0.0739662971958 -0.0239437006616 0.0145148252507 -0.0272282528465 0.0379213862681 -0.0210420100436 -0.0813463078633 -0.00964774437874 0.00695556845394 0.0252283058446 -0.0448402503119 -0.031324661304 -0.0184046722063 0.0134742836898 0.0189091356883 -0.0334314025682 -0.0307448455514 -0.0256166459614 -0.0128686208269 -0.00610099926638 -0.0109235434157 -0.00309148837919 -0.0244483327777 0.016439305533 -0.010476115302 -0.0171874086525 0.00263670599962 0.0140346574639 -0.0123055453509 -0.00131312243382 -0.023801137548 0.0623477638417 0.0248225612985 0.0241487445346 0.000135410362575 -0.00873253300468 -0.036656252866 0.0178037060481 0.0314568463544 -0.0255155570878 -0.00525514878073 0.0126352437879 -0.0500416763576 -0.024550248074 0.0522924867873 -0.000309277211674 -0.043854621726 0.020691113199 0.0249483731633 -0.0260492282702 -0.0279081484527 -0.00601838340454 
outsoucing 0.0989517991355 0.0162662976319 0.0528443586483 -0.0606065455241 0.0691751044125 -0.0336723411215 -0.0594756215405 -0.0889106378166 0.0630666225967 0.055835608245 -0.0620375803187 0.0162115312171 0.0654261701661 -0.0594937067353 -0.0399214727237 -0.0287354453693 -0.00759732938099 -0.0594354896157 -0.0832639349929 -0.0334865450928 0.00970246221126 -0.0252770450679 0.069816788043 0.00980458943676 -0.0688463735591 -0.130920594469 0.030105521134 -0.0292482942024 0.0827413408795 0.085578719792 0.0270784892956 0.0758061704853 -0.00903176617998 0.0220502701625 0.0148010425592 -0.0383227473515 0.030428129144 0.0324083121496 0.0108729300284 -0.0674483811138 0.0777699215485 0.0652588236346 -0.0164318305683 0.0210352796772 -0.00965376347837 -0.00964341272219 0.0903343016599 -0.137797723841 -0.034681944605 -0.095741800529 0.0222599718601 -0.000541599998012 0.0769645747666 0.0100135111325 -0.0379960599359 0.0398105572682 -0.0221214808597 -0.0265759958364 -0.0882046510296 -0.120401164008 0.00918915776741 0.0167332642452 -0.00998206968758 0.0018286129206 0.0840976361963 0.0023551489337 0.0247349139056 -0.0416059086295 -0.0415993702804 0.134440744862 -0.0332360184306 -0.0428665097139 0.0523297240044 -0.034865761884 -0.0473508249902 -0.0730068540215 -0.0442349773371 -0.0266737129787 0.0461826537366 0.0849567001031 0.0473571970788 0.083519968254 -0.044451760791 -0.147877393945 0.0392898106657 0.0850192843488 0.109747347292 -0.000450314878871 -0.0964073263238 0.0539284470483 -0.0642604276898 -0.00634966188143 0.0738063634297 0.0333169311791 -0.00750617030082 0.0231293763756 -0.0429790521121 -0.0814678119146 0.0212518682519 -0.0118375407923 
becaaspect0 0.0439203837722 -0.0469002375629 -0.0102331746356 -0.0408280823133 -0.0126950639785 0.0190773807586 -0.0208773361605 -0.0355879282359 0.0798363582414 0.05842822648 -0.0753683001914 0.0110545195774 0.0876171137643 0.0320665085656 -0.0618644722606 0.0172004100588 -0.0220816309553 0.052755046194 -0.0029129758345 -0.0289550185524 0.00715676656981 0.0260250917176 0.0208690859369 0.0129872988966 -0.0171211283878 0.0277950062267 -0.00513008738678 -0.0953042375279 -0.0017821784738 -0.0280561498237 -0.0510225944029 0.0176976536294 -0.0218449600811 -0.0959774351932 -0.0261612497953 0.0209009752462 0.0314578851915 0.0264556448124 -0.023235401532 -0.0777922472887 0.0740850692462 0.046069734772 -0.00389939084163 -0.0208260408332 -0.061253722354 0.0394677580848 0.0607497608052 -0.0295958568882 0.0608555739908 -0.0143595201876 -0.0133829260535 0.00606902018535 -0.0119702485477 -0.0310806078037 0.00547186153963 0.025500620055 0.0172294417086 0.0670182041658 0.00966637950192 -0.124003831489 -0.00234081156206 0.0106652352052 0.0540004942791 0.0930300806245 0.0045041656291 -0.010459881045 -0.049155515124 -0.0846393336148 -0.0138275348222 0.0235865073355 -0.0544591948493 -0.0709515251029 0.00412070191884 0.0165860876638 -0.0190265201002 -0.0164758757905 0.0156537977686 -0.0104658312643 0.0490045228385 0.0128468947905 0.0215139308478 0.0291449834236 -0.0540795673339 -0.0106466307582 0.0446879284267 0.031267479559 0.0661396638524 0.0181736433347 0.00788825517831 -0.0914009577552 0.0568687878485 -0.0383600624497 -0.0217281798878 -0.0624495676481 -0.0460631176353 -0.0418251326536 0.0467924068741 -0.0698722540893 -0.0574679293767 0.0269930968078 
sowish 0.00944347443528 0.0154704905322 0.0356427910106 0.0186735181952 0.0270461935921 -0.00599727350298 0.0132870720078 -0.024239269079 0.0374957904544 0.00876144566398 -0.00995539811218 0.0484622623688 0.0213522415313 -0.0173293197045 -0.016081068137 -0.00831639791614 -0.0280280704389 0.0287567919871 0.0555669684744 0.053229534264 0.185614956705 0.105920672945 0.0153292721319 -0.000804224781802 -0.0659201837188 -0.0567191362144 0.0834438762168 -0.117156894459 -0.0748807048885 0.0186906941074 -0.059903434403 -0.0249673163499 -0.0456041002839 -0.0309005924083 -0.0298054442675 0.0697143834887 -0.0292463429731 -0.0539937098568 -0.0453055411003 -0.0220723185455 0.0161643141517 -0.00503064845651 -0.164291912391 0.0614014100448 -0.022962077099 -0.0213473590739 -0.0620970086483 -0.0446023486109 0.0154072222112 -0.0430045132116 -0.00504484832825 -0.0460871887659 -0.0241979439784 -0.0217800700604 -0.0622914585087 0.0796112554423 0.0286105671617 -0.0408462931266 -0.0179571013941 -0.0133988712013 -0.0458859872842 0.0982604256118 0.0364541639242 -0.074055103465 -0.0525356129721 0.0238653436244 -0.0210081190902 -0.0247518446815 -0.0619483709995 0.00649637287123 0.0709031084246 -0.0974205023133 0.0731890091938 -0.0433872284864 0.0184932453891 0.0353091643395 0.0748301799529 -0.0292668064532 0.0289072182405 0.0586428840255 0.0157210480235 0.0731297825644 0.0471028262805 -0.0893542884282 -0.0547774109717 0.131669366411 0.0649194825192 0.0375660899244 -0.00232100056201 -0.0881260040625 -0.042750488058 0.0115375475985 0.0756156553534 -0.0315339023109 -0.040340532941 -0.0999734021384 0.0319317684177 -0.041613484574 -0.0336699813714 -0.00838899821797 
applecom -0.0193247849987 0.0683866608649 -0.0483124300205 -0.0488610352005 -0.0453297353918 -0.00640128501381 -0.0388570524057 0.0277528246866 0.0266433315474 0.0879427164756 0.0320544960751 0.0242540460755 0.0474210524558 -0.0245375325774 0.00319965537164 0.0397572662829 -0.0340675437451 0.000524100373533 0.00389012931487 -0.0651765132604 -0.0758674054989 0.0559720684908 0.0272749530303 -0.00730712846906 0.0472994070517 -0.0807636318037 -0.0492984779001 -0.052709836633 0.0324807256359 -0.0607873779762 -0.0783502697176 0.0380081728219 -0.0904986300676 -0.0107230601697 0.0186680249278 0.132778497869 0.0285835899179 0.0210863257836 -0.0539930920549 -0.053500457541 0.0327508942935 -0.0438350706654 -0.0849207544988 -0.0449974183904 -0.0471197736956 0.124132777975 -0.0647112363307 -0.0669302667803 0.125856325677 0.0581813906357 0.00883717828446 0.0215351073174 0.0561344766891 -0.0368120378247 -0.0387276448198 0.0131606265196 0.0196439260494 0.041684693689 -0.0302130664511 -0.00206071029116 0.00618157021736 0.0386107503492 -0.0326682653042 0.00704090143419 -0.0398896952783 0.00707218365695 0.0233062542942 -0.00450261298638 0.0467175665494 0.0472143070645 -0.0655608903091 0.0251827312115 -0.0362398076387 0.0392565462271 0.0358667851942 -0.00699367374057 -0.0173348770326 0.0305443229424 0.00995451202768 0.0865788791777 0.0623079022256 -0.00271423115603 0.0106982519601 -0.0787132610543 -0.0228275184039 0.00677634146649 0.0165050985395 0.0159681839675 -0.036738752594 -0.0239488325528 -0.0400450848977 0.0322405383765 0.0750466979533 0.0215122780099 -0.0421925369562 -0.0515194610668 0.0718626735483 -0.069607518914 -0.0857085660394 -0.0163475459072 
nortell 0.0622894234827 0.0412512421153 0.0193118631939 -0.0538761066507 0.0754055692867 -0.0630095239952 0.0420004258091 -0.107797730132 -0.0101938820528 0.0724858887135 -0.0152896654455 0.0386390249108 0.108833481114 0.00129353404217 0.0237656264382 0.00231218361564 0.0289336151805 0.0185743287913 0.0500783240778 -0.0749342931341 -0.0102356146105 -0.00569483806771 0.0177219914577 0.0572414737408 -0.0684153915755 0.0433639445014 -0.022596187228 0.0024063468315 -0.0500977278699 0.0256397445484 -0.0141263103317 0.0840087018901 0.0168265032012 -0.054764157347 -0.0475271264973 -0.0435825429862 -0.0909496017023 0.00505253169296 -0.0305471614624 -0.0875141530658 0.0493566426454 0.124268862507 -0.0711745706041 -0.0739798891303 -0.0548988954867 0.0774044554196 0.0633731055933 0.0419471766737 0.027475700791 -0.0638937395058 0.0302381778651 -0.0273160448095 0.0105941810373 -0.030844421806 0.0143290821175 0.0210731292412 -0.0209555353502 -0.0258031792153 -0.0451016436288 0.0367002003816 0.0258840285563 0.0671785388247 0.0659840929477 -0.0181930350319 -0.020953237933 -0.0304314571083 0.00997164694795 0.0300248128302 0.0507493589552 -0.0214789287711 0.000889385135771 -0.0222172959311 -0.0165337976452 0.0267186991111 -0.0170662346032 -0.00517288136694 -0.0236715645037 -0.015064731213 0.0411189427986 0.01521149614 0.0532983583043 0.0968097504308 0.0687730728579 -0.000151251572742 -0.0181595305138 -0.00848646382611 -0.0282138290669 0.0484865084194 0.0532427526127 0.00884035788597 0.00206937730592 0.0060800819439 0.0395026268413 0.0642548043602 0.035230226531 0.0274473961953 0.0484823263161 0.0210182644166 -0.0569022446718 0.0360691633186 
imail 0.0481953323762 -0.0847145768438 0.0137046374811 -0.087149378011 0.00166177521825 -0.0768240544737 -0.0232983823333 -0.0205593705002 -0.0388058652944 0.0773954337689 -0.0910356767129 0.0331346421554 0.112177120883 0.0296872884788 0.0729624893649 -0.0186041211765 -0.0214839886017 0.0841190027254 -0.0258707171822 -0.113614321222 0.00459363080273 0.0543083361552 0.0829453549669 0.0663373012261 -0.0258984854455 -0.109472394561 0.0753534294408 -0.0746385102061 -0.0968019534041 -0.00682754830201 -0.0896332023565 -0.0578643842294 -0.100052325188 0.00641646116515 -0.0336285913111 -0.0641219052252 -0.0239288787838 0.00834612339698 0.00378262113394 -0.00452327382359 0.0522789619551 -0.0134055469199 -0.0942590252473 -0.0269725187771 0.0150626720457 -0.00996514719445 0.016701821719 -0.0405019383206 -0.00014292445186 0.00368764811205 0.0634085321602 -0.061787933031 0.0505363421368 -0.0237754430788 -0.0541875618083 0.00027589865582 0.0373362158217 -0.0450836633313 -0.0821077047935 -0.0979267253661 -0.0230112181259 0.0680589561635 0.0727953812658 0.0731829886605 0.0689253821019 0.0493616645686 0.0407708387875 -0.0450772390698 -0.0111950799426 0.0578395408149 -0.00699142389768 -0.0081864239671 0.017484444479 0.0481090378816 0.0313989702346 -0.0171708701092 -0.000959155492046 0.064092560015 0.0126450674544 0.0900526780883 -0.0300867663917 0.037718209198 -0.0310124933488 -0.0452605139934 0.0547087351458 0.0721524065656 0.0365789307336 -0.0112821967075 -0.102221251289 -0.0914234481949 -0.103120898193 0.0167535434037 0.149944185977 0.0318924169419 -0.00711913900441 0.00261995002787 0.0544747350524 -0.167807531937 0.0182680712046 0.0177028157031 
comfterbale 0.00546575868252 0.0446101685986 -0.0309036166297 -0.0291968803953 0.0333479089653 0.00291890941904 -0.0719497034519 -0.102760256622 0.026702225119 0.0188268690965 -0.030039451417 0.0179585077024 0.0823537390111 -0.0596080765655 0.0168414638666 0.0217177534849 -0.0385594832441 0.0488104554612 -0.00135382684564 -0.058216164353 -0.0316666618785 0.069525259061 0.0604159499557 0.0968847017963 -0.0301345102014 -0.113475412949 0.013743004794 -0.112189928274 0.000527935692393 -0.0546022929479 -0.00959247000784 0.0318344329641 0.0121910652425 -0.0491612935723 0.000136928347202 0.0499801077393 -0.0605099205231 0.0121067138389 -0.0265549183473 -0.0831340253168 -0.0179375213491 -0.059404810678 -0.0409752811709 -0.0907425237907 -0.0490522064442 0.00955675538876 -0.0377282233496 -0.0419326630787 0.0293072749503 -0.0423253659629 0.0402363789928 0.0348842104156 0.0598871478673 -0.0109603261617 -0.0837027167269 0.0120565993118 0.00844966872026 -0.0119646845057 -0.0452927658823 -0.0492604661077 -0.0450772219469 0.0472609072463 -0.0424846624799 -0.0472664256644 0.00479126340516 -0.0459337490849 0.0335305088329 -0.00922104132215 0.0231310974225 0.0165982701653 -0.0226053126858 -0.0197817697535 -0.0174483537494 0.030358055394 0.0284352396306 0.115335480996 0.0106006056626 0.0397217423853 0.043572522562 0.031560539682 -0.000472071380104 0.0803698986441 0.0118901912416 -0.0753163172637 0.000489243103282 -0.0117784676645 0.105627356707 -0.0359703511768 -0.0835724321679 0.00719646467865 -0.0270202110638 -0.0378762080907 0.0681247563303 0.0241448257351 0.0280035539838 0.0712332062309 0.0401458509258 -0.113215043317 -0.0338214658047 0.0336125077825 
unaspect2 0.0531773432997 -0.060158012007 -0.0199956368566 -0.0200013669695 0.00437156030033 0.023474817634 -0.0381285855137 -0.0309664262226 0.0688058031835 0.0529428893843 -0.0497693133131 0.000551738534828 0.0847712525146 -0.0137849677539 0.00729657897403 0.0196355650124 -0.0231564280704 0.0495230483776 0.00787022035098 -0.0683202317582 -0.0168785412215 0.0479149410084 0.0226765668626 0.0544409498614 -0.00168925567401 -0.0348591486523 -0.0221572570697 -0.0986094743008 -0.0490056858752 -0.0275059753997 -0.060940150038 0.0533559463648 -0.00677467563429 -0.0669848935749 -0.0563114452675 0.028499316927 -0.00733258846465 0.0289676338338 -0.00889398280533 -0.0955175204611 0.0405322961955 0.0272515575158 -0.043157304978 -0.0437186951802 -0.0286659807637 0.0341745226346 0.0107536789452 -0.0237788124446 0.0759937853461 -0.0396426755408 0.0190366428634 0.00804450804016 -0.0408049260439 -0.0293582870138 0.0317967635622 0.0385908072408 -0.0188689473774 0.0409602266521 0.0355441462095 -0.0736507434322 -0.00363898017375 0.00657218213362 0.0353772401124 0.0440821006584 0.00506422878823 -0.000575807772738 -0.0264058262712 -0.0651515522081 0.0146039385646 0.0399154751693 -0.0708502541576 -0.0721340824428 0.0207766393261 0.0157865484291 0.00690514129453 -0.0355946561117 -0.0260053964403 -0.0173788077514 0.0453420527339 0.0354849131683 0.0314700871202 0.0481566214508 -0.0414852462668 -0.0349690443326 0.0295838766018 -0.00779113296972 0.0802612664709 0.0356757973035 0.0103317591274 -0.0833743930308 0.0463536192876 0.0277434287789 0.0172653898095 -0.0400623926994 -0.0232646082546 0.00272815601351 -0.0094223378117 -0.0653246882239 -0.0778689418059 0.0207819480156 
registration/1st 0.0322154101251 -0.0115941619763 -0.0323252603581 0.0200410913811 -0.0196086603069 -0.0155488752821 -0.0366883444511 -0.0419584287416 0.00650802411908 -0.00248466748349 -0.0103793159858 0.0140351547702 0.0561529020026 0.0064783324222 0.0349275031183 0.00863473187076 -0.0376436540729 0.031832126308 -0.0512782654443 -0.0113277257493 -0.00165122175397 0.0246913175208 0.0646788546031 0.0258879849252 -0.031415873572 -0.0816695552964 0.00200965181821 -0.0855036237447 -0.0611855032797 -0.0339588595401 -0.0376778570961 0.0501567196418 -0.0801471749113 -0.00792983328489 -0.0662284353537 0.056275161948 0.0084205440065 -0.00136774315798 -0.0186593992382 -0.0431739653369 -0.0107957969541 -0.0110536060023 -0.0536005169566 -0.0348711136354 -0.0563189784896 -0.00912526786571 0.0346426492209 -0.0279732697215 0.0296429985419 -0.00840966158839 -0.00313294104918 0.0100188584324 0.0270176730622 -0.00980981180135 -0.0440027665901 0.0558014165193 -0.0145326620198 0.0282770496931 0.0244836668548 -0.062043934908 0.00629557431909 0.00963204928311 -0.00526099421265 -0.0319867682646 0.0206415639309 0.00294982007225 -0.0419163476904 0.0306468378457 0.00710431342286 0.0312638736364 -0.0426698526242 -0.002741380889 0.0157059112596 -0.0279689375438 -0.0186653605427 -0.000152768790487 0.00406835106735 0.0158809421961 -0.00944632512151 0.0897065067651 -0.0356995814752 0.038204486888 -0.0493731988237 -0.0301511955404 -0.0259313288352 -0.0186434235646 0.0574721028266 -0.00289451795569 -0.00424094980969 0.0120877926832 -0.0332290854026 0.0133528966202 0.0421454535097 -0.0594472189067 -0.0119533581697 -0.0180635126077 0.0153814929063 -0.0359679903125 -0.0741607214074 -0.00530259257685 
recovey 0.0583424061743 -0.00826722411747 0.0191789705049 0.00242111391526 0.013180713282 0.0254932617538 0.0201097562387 -0.0549548643498 -0.0209363839349 0.0389664956981 0.0184810262913 0.0197188964416 0.0324797521711 0.0091259237979 0.0479889496725 0.0122985570817 0.0751102182683 0.00544411504833 0.0118928257616 0.0119397239832 0.04726890704 0.00353747050167 -0.0191704260207 0.0424565226389 0.00674875617807 -0.0244029138766 -0.063979420186 -0.0445744923633 0.0380708382494 0.0115100558636 0.0407320357146 0.0697791877835 -0.074285375518 -0.0135627157786 0.00222553989455 -0.0302165809959 0.00137033620107 -0.0228147543305 0.0304362657905 0.009197047396 0.0116586330921 0.00670200982846 -0.032231996021 -0.0771169420593 -0.036714365051 0.0391956376064 -0.0700904532058 -0.0776109011133 -0.0276346972116 0.00588745592939 0.00785625773408 0.0804362148888 0.060949341335 -0.000162586812652 -0.0403468651668 0.0242926532823 -0.011740443083 -0.0207301013692 0.0105080159138 -0.109808708287 -0.0736209596441 0.0674850905498 0.0223121991704 -0.0514045044786 0.00223336780935 -0.0874724018357 -0.00801892783356 -0.0610252619421 -0.012791514432 0.00609359329195 -0.0214567121865 -0.0789954981539 -0.000274766130768 -0.0432327301347 -0.0162395693312 0.0259084542124 -0.00883576839533 0.0689756601434 -0.0156648541109 0.0754796029673 -0.0326708952923 0.075237684313 -0.00792815542743 -0.0480213932211 -0.0179221290505 0.00941589819131 0.12041095361 0.014143067986 -0.0295727730924 -0.0380932783306 -0.0400291081277 0.000575342266452 0.0101913559726 0.0280273994306 0.0386565525208 -0.0388089770091 0.0351064860827 0.00716347065199 0.0122054567021 0.0600619306966 
asus1920x1080 0.00917042177525 0.0105239608225 0.0151319270123 -0.000371601472542 -0.044437732633 -0.076596157476 -0.031935226552 -0.0241412159158 0.00257766148556 -0.030291481948 0.00831074858942 -0.0327828931156 -0.0454455103328 -0.0811168091705 0.000645235533905 0.0390455690928 -0.0438247443156 0.0582340949063 -0.0172533904368 -0.0529972267833 -0.0705621149547 0.132629095583 0.0192210242792 0.0707194188728 -0.0182082429827 -0.0502146406686 -0.0568124592868 -0.0800818290038 -0.108178493157 -0.106201231095 0.00381007690175 0.071470922974 -0.07187016698 -0.0268118740033 -0.055566676449 0.124689668691 0.0464675147157 0.138284532321 -0.0431922701868 -0.107582009164 0.0402867324878 -0.053273459883 -0.0136440795929 -0.0358950262861 -0.0420887102785 0.00675950457089 0.0332488023343 -0.0457702727692 0.111358167932 -0.031787106692 -0.0900595946037 -0.0167799771619 -0.0271826690338 -0.017611120767 0.0704497234201 0.139037334141 -0.0287745414105 0.0635155060728 0.0564393177229 0.0213546882863 -0.000936132655801 -0.0329543591188 -0.0854530272603 0.0045478074623 0.0371496428344 0.0528009324538 0.029356415116 -0.0933912158094 -0.0158455349895 0.024827762064 0.000723693202046 0.0241657909972 0.0737142956749 -0.0422587967893 -0.0673008856654 0.0238580020331 -0.021878684439 0.0183112269626 -0.0239272822465 0.132401370565 -0.0191860038805 0.0399045241167 -0.0296520255613 -0.0363886680876 -0.0435336773521 -0.0524081953487 0.107410827297 0.0283039428832 -6.16924576966e-05 0.0415653468888 -0.00156480129275 -0.0554976143615 0.0269703523316 -0.0483327092272 -0.00084529252273 -0.00489121125001 -0.010724196908 0.0115334349429 -0.163060260798 -0.0558210057913 
quality-exactly -0.00707034728508 0.0700183844861 0.0484798170651 0.0294830479217 -0.0712525567091 -0.0417306389874 -0.0362357002263 -0.013679396837 0.0328829270235 -0.0178314432531 -0.0217778738104 -0.0132816711517 0.00153314044775 -0.0100567054443 -0.0282842584628 0.0170863422321 -0.0047881900639 -0.0122532308125 -0.0744202625303 -0.0397863004181 0.00313419617957 0.000634044796075 0.0522535905074 -0.0478405750648 -0.0313426433595 -0.0479362663171 0.0393512676167 0.0292882349864 -0.0213724855595 0.0173008536659 -0.0549017291489 0.0399666110046 -0.0130463645186 -0.0484341071943 -0.0438904144786 0.0425093449703 -0.067343272156 0.063263228441 -0.0206111868607 -0.0464032995884 0.00900643463134 0.0440962790485 -0.0417149358489 -0.0267055453089 -0.049890905513 0.0425365167465 0.0468301885976 -0.0156125134151 0.0480996110235 -0.0686996876355 -0.0172911101765 -0.0177096108185 0.0696923376157 0.0420705775964 -0.0290166255384 -0.00942442984597 -0.0133377667743 0.00752704503825 0.037478354801 -0.10365480802 -0.0512758097717 -0.0051123765577 0.0212348503416 -0.0358838037133 0.0210214899266 -0.0365459732305 -0.0273568183527 -0.0197917690418 0.015512526465 -0.00596638920764 -0.0131793530192 -0.0205112635419 0.0327705630985 0.000106711536943 -0.0420612735201 0.0480915640186 0.0251829874516 0.011258056225 0.0669303369398 0.0385350740363 -0.0317897399102 -0.0357125875323 -0.0634804267676 -0.0721481586276 0.0178666407388 -0.00532857034347 0.0311058784945 -0.0248839491379 0.0165034085186 0.00624470718396 -0.000519456475657 -0.0193075659175 0.0107998710676 0.0136361159392 -0.0187425620868 -0.015661816561 -0.0115843715235 0.00657476340642 -0.0814766950421 0.0107643168443 
1-year-warranty 0.00774817233473 -0.0145489331764 0.00455738219784 -0.0200867772681 0.0198884593102 -0.0339659517649 0.0464579410613 -0.0585285692883 0.0584254029683 -0.00765379305816 -0.0321300640703 0.0573606459678 0.0218774333292 0.0285630392892 0.0740654691106 0.0128444733538 -0.00255993826633 -0.0207352387555 0.0325692261898 -0.0383493472401 -0.0431311715822 0.0937161681784 0.0630701157127 0.0779927022526 -0.0482034250934 -0.0772181580984 0.0140383249724 0.0146601920487 -0.0463973035528 -0.0216071519876 0.0089490647981 -0.00733911360891 -0.0477999503833 0.0224979224673 -0.00976947785107 -0.0212260193011 0.0254938780408 0.0237953973204 -0.0146865400318 0.0139601678749 0.0211630577704 0.0247491033391 -0.075742607264 0.0878244391766 -0.0191401335689 0.0055930165881 0.0779127912808 -0.0237286698552 0.0461058308367 -0.0210680844497 0.00319762711516 0.00239769454272 0.0208964525761 -0.0315590396478 -0.0451172301891 0.0248963321648 0.0217552180024 0.059174458587 -0.0597077022122 -0.0422467641308 0.00833189897573 0.0192595864379 0.0393873954011 -0.00200226666096 0.0360668580528 0.0299117321076 -0.0327897456734 0.0175381247913 0.00820807322156 -0.032725006799 0.0351747506752 0.0214922883189 0.00150986434139 -0.0657552826154 0.045869777724 0.0451907364948 0.0118983325377 0.0144270186939 0.0444582779434 0.00459644683107 -0.0104115100311 0.0164808531791 0.0392023055446 0.0405832320715 -0.00469057988149 -0.0319749842502 0.00657626371451 -0.0428373945181 0.00362493765899 -0.0535525564414 -0.0785300644381 0.0363775062027 -0.0439489260819 0.0204831727784 0.0346477967251 -0.0415398971734 0.0297002146709 -0.0291000375371 -0.00918000035954 -0.0135735175875 
sorly 0.0128379836517 -0.00172944839253 -0.0182961897713 0.0239759875722 -0.0293182844854 0.0255934365649 0.0115940438355 -0.0426299284336 -0.0134895588926 0.0168660422276 -0.071227362156 0.0220408348059 0.0827962062779 0.0268553864044 0.0149220926582 -0.0198709595314 -0.0469168772099 0.0415433279207 -0.128713930861 0.0475855269029 0.139411228853 0.167921913646 0.0743255113222 0.113763991672 0.00756916584106 -0.124505489279 -0.0182981706934 -0.0869697027919 0.024172737284 0.00384569907128 -0.0263869369716 -0.00613545255601 -0.0365082317961 -0.0149811431366 -0.0706294142465 0.0151399894355 -0.0183929895287 -0.061372420798 -0.014555292959 -0.051527269498 0.0671871173467 0.0842853586652 0.0580146711819 -0.0567234210175 -0.132754430853 -0.0301025834296 0.0584016727711 -0.0854002071089 0.0526109670798 -0.108097547633 -0.0357658823937 0.144050131239 0.0512300771624 0.0292745384233 -0.0278728856108 0.00260129906557 0.176485912176 0.0685358189094 -0.045223027208 -0.126771835554 -0.0116749906279 0.14754442944 0.0791168599617 0.0128962966393 -0.0439181294494 -0.0879636041586 -0.0861127057752 -0.0442670120246 0.0324396845736 0.10106134577 0.058525669928 -0.148286272203 0.0713587661176 -0.0635905199313 0.0335752833396 0.042364430852 -0.0275271378658 0.0341259311454 0.0811607096597 -0.0466822264136 -0.00884699751651 0.081752810729 -0.0616191699341 -0.196639402239 -0.0812414101175 -0.011516144329 -0.0163191419455 -0.00140185025277 -0.04472567885 -0.148868877512 0.0442547260233 0.0950446007525 0.112006891395 0.0359063304243 0.0250432370743 -0.0248186371062 0.0244099071902 -0.162071914401 0.0603397708436 -0.168704917121 
non-satisfactory 0.0395964102482 0.0285624854914 0.00842929721586 0.0302845283183 0.0218479188853 -0.0246004582539 -0.0258196592756 -0.00862951899418 0.0303146744544 0.0273013960617 0.0146574289407 0.0335971278043 0.0149364633027 0.00109064076802 0.0300521022658 0.0224422587316 -0.0303591993474 0.00584738488454 0.023232745037 -0.0661479702808 -0.0559055700828 0.0160484223719 0.0470285875286 -0.00317338150612 -0.00403562373957 -0.0937007117463 -0.0234915806844 -0.0233700783317 -0.00803038573098 0.00540784665292 -0.0322820443626 0.0245695910105 -0.0317788712394 -0.0232787900607 -0.00705039140602 0.0120845145614 -0.00321813484706 -0.00789282818956 -0.0124447750352 -0.0176497984923 0.0131138014111 0.0295383132711 -0.0453776259072 -0.0102799956337 -0.00260645978105 0.00407226504224 -0.00850888488834 -0.00876029370428 0.0137071702647 -0.0265116775281 0.0161592805675 -0.002133366992 0.00391865378094 -0.0601976522142 -0.0442353505917 0.0197574085822 -0.00637834213188 0.0116923512067 -0.0127372689181 -0.0436268914576 0.0151386441633 0.00348611863586 -0.000845562671699 0.0180497672748 -0.00443603388845 -0.00511538062408 -0.0267001281619 -0.0627447549899 -0.00818117701616 0.0381918067437 -0.00822030562105 0.0318204739762 0.013554433933 0.00549008134945 -0.00643712490842 -0.016440169083 -0.0334344390177 0.0119164539065 0.00891763042685 0.0792205227943 -0.00560030483513 0.0133950879368 0.00415303528888 -0.0491545206495 -0.00527114203858 -0.0355329811592 0.0390529213253 -0.0105940369026 -0.0352763226871 -0.0239322459669 -0.0295798099347 0.0308711734136 0.0161163344716 -0.0289457027798 -0.0291150458123 0.0097334858002 0.020540409691 -0.0402828742173 -0.0211673485545 -0.0378856347324 
realizwed 0.0749480929992 -0.0162408644584 0.000759905030232 -0.0690373390093 -0.0414623424846 -0.0434979215566 0.00756331593403 -0.120061913984 -0.0431311251112 -0.058678173304 0.0218085458166 0.105341682038 0.0105440477962 -0.00496687238211 0.0234918283572 0.0246974449421 0.0665533094106 0.00266116597808 -0.0585906446739 0.00495716350111 -0.0509211603123 0.085166567712 -0.0127609827397 0.00611888360075 0.0397453509618 -0.0717201549546 0.00953821368491 -0.0409669207117 0.0297114129019 -0.00500746655329 -0.075101691975 0.00240734924487 -0.052981639143 -0.000333634149557 -0.0484477914838 0.00770468990119 -0.0140435979579 -0.0336718273419 -0.00584446541415 0.00793437154972 -0.00339201874377 0.0467331118914 -0.0946949677421 -0.0151901642 -0.00287170559424 0.0801951521839 0.0354007871144 -0.0381123780703 0.043384782142 0.00778529849534 0.0344735776671 0.041114876024 0.0152669428859 -0.0131432371971 -0.0824687600368 0.0121138628251 0.0447789936511 -0.0355809900281 -0.116124830412 -0.0340997241842 -0.0461801774473 0.0606189660279 0.038097942146 -0.0113912317543 -0.0425544803818 0.0513362947973 0.0385376597786 0.0064856489245 0.00914284931231 0.0680830219289 0.0050195658285 -0.0733851044134 -0.0582937570145 -0.0926798682172 -0.037284827165 -0.0671098049018 -0.0402935434032 -0.0287564789757 0.0399731771833 0.0576755070859 -0.0109077332367 -0.00367180926375 0.00635787226466 -0.102515295156 0.0403798429206 0.0309045284721 0.0775331033315 -0.0410629178179 -0.0685391218722 -0.0126266318749 -0.0328698430996 0.0348406090386 0.0229914292869 0.0335419889283 0.013259347375 0.0112756301172 0.107106398092 -0.0311204483864 -0.0495900444614 0.0536212574108 
crutchs 0.0953532620548 -0.0551287492376 0.00807525894218 -0.0197445153817 0.0270190751159 0.051876810621 -0.0503328084863 -0.0405445531878 0.0837703023203 -0.00344042541569 0.0480825320579 0.0283226748162 0.0612465478921 0.0361327769845 0.0406486727956 -0.0500645727373 -0.0707192275796 -0.0901926232793 0.0311207541422 -0.0120817400566 -0.0968915490366 0.0330452945582 0.0609752466024 0.0088328788552 -0.130430451771 0.0229110947623 -0.0345436137 0.0414991310687 0.00181131959988 -0.00844339633993 -0.0773066220791 0.0768221536675 -0.0253980943428 -0.00640652112124 -0.0256655015874 0.0907692999648 -0.00231983987784 0.0322971404197 -0.00754137232946 -0.017046395819 0.0244896159888 0.0186879753943 -0.0213433597391 0.0113967675274 0.031601078076 -0.0316610490911 0.078963102999 -0.0560881696224 0.0629089464344 -0.084820421026 0.0288244646136 0.0277207553825 0.0400534110131 -0.0818749033078 -0.117699677427 0.0244976115778 0.0528472288057 -0.040484768996 -0.0209902180754 -0.126141473941 0.0615020867368 0.0467624514902 -0.0452937853972 0.0492339102804 0.0434821365981 -0.0257037156077 -0.0342566807693 0.0752902265932 -0.00304417977693 -0.00428740296446 -0.0572306946011 0.00321233990617 -0.0240880761548 -0.0877744402276 -0.00505063879805 -0.00701029905542 0.0508413492533 -0.0347578392698 0.000516224316453 0.195697158179 -0.034747581247 0.0166469190503 -0.0388537940161 -0.0345652548384 0.0685073849635 0.0530131707112 0.101806515211 0.0331887625836 -0.0811234252331 -0.0592424455823 -0.0631528456118 -0.00202363912522 0.0049735394604 -0.0164286159649 0.0464540712759 0.0429368536727 -0.0136495441839 -0.0504636078729 -0.0135730657123 0.00148235315612 
persoal 0.0443249272213 -0.0241274862053 -0.117508941249 -0.0447634774892 0.0275364846144 -0.0385913320644 -0.0976479533833 -0.078438362003 0.0799162565687 0.0322426631487 -0.0921313553465 -0.00464709615811 -0.00348089810573 0.0394612260297 -0.120999439656 -0.0489986759555 -0.18067291286 0.0584278224332 -0.0410239789406 0.116812519763 0.0536505826251 0.0142624940191 0.00506464697508 0.0887282559316 0.0198579890084 -0.0927463045411 0.00596430250252 0.00706884656562 -0.00699214660201 -0.0525266265496 0.0797675635434 0.0436736303874 -0.0261098376777 -0.0535136724543 -0.090259355998 0.162336916519 0.0842623065803 0.000449200867524 -0.0562632221672 -0.141815781466 0.171832915161 0.0684253863426 -0.11222304008 -0.0300183853917 -0.0577072249899 0.060633817173 0.0143554730275 -0.0432127577256 0.000973846276449 -0.00643169698027 -0.0818228610528 0.0513439741311 0.0504111227912 -0.0707503128948 -0.0230593901315 -0.0476135261708 0.0360125831011 0.00995189478352 -0.0438633765569 -0.00418819836479 -0.0058914952325 -0.03787298097 -0.0250911885214 -0.0602596687603 0.0482127220519 0.0367752420776 0.00677634623086 -0.0490697749479 0.0531078255623 0.0871045195834 -0.0297627849702 -0.148756228515 -0.0132990934514 0.037527542424 0.0520364251576 -0.00578004577836 -0.0476544750069 -0.0283672653795 0.118839193903 0.216680388591 -0.0692428153246 0.0810622623936 0.0636573162156 0.0326894321013 0.0837025596411 0.137196930445 0.0541326226087 -0.0488324265771 0.0506386238277 0.0236328349563 -0.117610339875 -0.000839199451225 0.0610890180833 -0.00798794600321 -0.183950406725 -0.0384605315995 0.0241448870276 -0.0781833101303 -0.0736877605684 0.0769865486474 
liht 0.126054426236 0.019750324945 -0.0198383960558 -0.0386978848677 0.0444739859074 -0.0641593806164 0.0444284530187 -0.0571796773324 0.0667788502905 0.109489665192 -0.0567570810074 -0.0636816135367 0.075118941361 0.0257215265128 0.0737249742071 -0.0446940545645 -0.0804171073725 0.122490293184 -0.0359710210861 -0.0429236497454 0.0100133981705 0.0813727057932 0.030853889532 0.0663867768887 -0.120706761378 -0.0513483127161 0.0353524889923 -0.146639283295 -0.0148502607068 0.0441393186667 -0.0286661539289 0.145967717987 -0.116050928021 0.0507610291229 -0.0118962253837 0.10345800001 0.00546893170966 0.0187786532214 -0.0266054581331 -0.0255070243689 0.0522102915184 6.1199669505e-05 -0.0667174111936 -0.0302361571336 -0.0604348477934 -0.0165279278697 0.0148220621313 -0.0342580872326 -0.0300170114169 0.0167850274522 0.0448152869567 0.0594447674763 0.013189795687 -0.0185402602555 -0.0434259180513 0.0325628547109 0.0487634827198 -0.0368972893748 -0.0631881126986 -0.0830875364397 0.102858966699 0.000707967591728 -0.00205956579141 0.00117613273894 0.0849210386527 -0.0463496863322 -0.0525840829866 -0.0386373880361 -0.0260362578692 0.0523898513823 -0.0564839136324 0.00743829195487 -0.0260883582097 -0.00269660108553 -0.00972093069374 0.00532166482443 -0.111926427676 0.0827809060348 0.0925859326455 0.127282158575 -0.0779375425587 0.0343492841714 -0.0158433283953 -0.0615898112668 -0.0423328884397 0.0351549878259 0.140915617562 0.0587525128433 -0.0415536861811 0.0439532525855 0.0285469223273 0.093025135533 0.0249370622834 -0.0582940123377 0.0381443882494 0.00913063008216 0.102694467248 -0.1022058335 0.0227805585723 0.0852382730929 
expeirencing -0.0241643781857 -0.0738803708106 0.0305710286173 -0.024576580402 0.000917635161848 -0.000720828961894 -0.0711073697931 -0.117806364706 0.0488291476031 0.0091778656383 -0.035867994882 0.00592379794136 -0.0137860823418 -0.0223707978892 -0.0480159441076 -0.0294361621131 -0.0376753892511 -0.0567105901594 -0.0640975546054 -0.0881620839295 -0.0195543837041 0.0738985548808 0.0230417303212 0.010404267865 -0.127346079682 -0.0406531108464 0.00778082535376 -0.0607290894713 0.0110266213942 0.0258397618704 0.00764134243677 0.0407141939556 0.0191882290562 -0.0523245676602 -0.0797973999782 0.0125238992511 -0.0190897794289 0.00211632180573 0.0164950144304 -0.0844688432295 0.144424944018 0.100059574562 -0.0503204753574 0.0516697506762 -0.0309582429098 0.0339932114973 0.100617048286 -0.0620885052614 0.00532983123591 -0.0443092139008 0.0535337064289 0.0515929981449 0.0652099736006 -0.0503565420599 -0.00994273047337 0.0887372674916 0.0902879339106 -0.0137958800865 -0.0281335639755 -0.0782689349663 -0.0516199215895 0.0546357043918 0.0489953202803 0.022551331403 0.039952693678 0.0291874742306 -0.0546815096224 -0.0183937975283 0.0142753212664 0.0788227678067 0.0124548801883 -0.0745130527588 0.0211158806655 -0.0838729195828 -0.0527310785652 -0.103140035218 0.0179319765199 0.0714268189709 0.0381695937079 0.131257925658 0.00667051623072 0.00803771403456 0.0988290170026 -0.127589231823 0.0684848046652 0.0201184267097 0.0539900449459 0.0717743905933 -0.116697781827 -0.0288206135628 -0.0574173356637 0.0118545634162 0.0985607000644 0.0122828820117 0.0197396306018 -0.0415551425548 0.0045881404966 -0.0472604176813 -0.00397366040593 0.0669336552003 
narcissist 0.000245699237321 0.0513531299047 -0.0276555348756 0.010903378258 -0.0125836070605 -0.0440656737769 -0.00380569825203 -0.0096950977277 0.00392075922156 -0.0168622739649 -0.0232897442752 0.00582441887745 0.0725924261016 0.0194578024759 0.0748049046246 -0.0831042220383 -0.0179132371705 0.097663483235 -0.00916383716472 -0.109089398545 0.00865413671503 0.028106416356 0.113775020528 0.00237740286575 -0.0704264894836 -0.06745715408 -0.00604761866972 -0.101940066468 -0.0453423063856 0.0489102304882 -0.113474539324 0.0658529272845 -0.0661086426147 -0.0946437989132 -0.0298786486928 -0.00692808042486 -0.0537507423673 0.0230620952765 0.0424388510048 0.0326107138739 0.0297361432707 0.0236438137689 0.00566891514008 0.0130900382893 -0.0303192551145 0.0138989376046 0.0367025082169 -0.0724670846367 0.0337750315171 -0.0254313559631 -0.0593131333707 -0.0162988969123 0.0657180006496 0.0438825515809 -0.0226716044651 0.014422733153 0.00103761905541 0.0115167576138 0.000177899712507 -0.0758024861305 0.0192760965419 0.0460404866495 0.0242996214719 -0.0151949779474 0.0552355864441 -0.012017416972 0.0284830975191 -0.0339904132305 -0.0133991598362 -0.00310731821946 0.00525187819467 -0.0234644050696 0.0449279512761 -0.0112392176282 0.0282583940137 0.0130101839137 -0.0765786852267 0.0448558311605 -0.0820618241815 0.141552531721 -0.0188842556855 0.0504943633977 0.0353581583192 -0.0377447379701 -0.0509553386433 -0.0406760141858 0.108959537746 0.0175574022621 -0.0321563149751 -0.0609022093204 -0.0356010127391 0.080635310671 0.0921167321672 -0.0342885135083 -0.00877826708824 -0.0505152277201 0.06417025255 -0.0655499062718 -0.00540694979845 -0.0328170806659 
verginia 0.024181560806 0.0292384744818 -0.0507429102697 -9.70601841402e-05 -0.0272191540848 -0.0487812898348 -0.0672517239654 -0.0176272155853 -0.00291179909808 0.021184896166 -0.140753410918 -0.0111452564658 0.133775472708 -0.0550825291976 -0.036389031434 0.000797199112179 -0.00064844029094 0.0430775515262 -0.0294692548658 -0.0748735650638 -0.0131902303243 0.0695112268185 0.10807071998 0.0361112236466 -0.0371891718485 -0.133502373966 0.0344882531033 -0.100239881197 -0.042673033882 -0.00396014298272 -0.0514092495292 0.0474176520641 -0.0542486283464 -0.0933811019608 -0.00185993835384 0.116920836355 -0.0436314897893 0.0241142746261 -0.0424212519919 -0.0896333798313 -0.0822421036089 -0.0232901586205 -0.0606148900306 -0.0701792852293 -0.0508832467002 0.00567942725527 0.00665301920034 -0.0718309719809 0.0385734606687 -0.0626516671345 0.0243793351246 0.0225504552082 0.0724234845929 -0.00526487295923 -0.00283239836967 -0.0125190380137 -0.0155417780042 -0.0197796288434 0.00104025227633 -0.0760086457033 0.0188835568212 0.019375214576 0.0497482103451 0.00734197778937 0.000198801474001 -0.0431541578218 -0.0383103525014 -0.0208460918379 0.0935674513751 -0.0694312269704 -0.0448808114621 0.00388483923463 0.0167515587086 -0.0545256297018 -0.0203516960419 -0.0219447750481 0.00902536591684 0.0755729263377 -0.0464331086991 0.0136536960191 -0.0457176919861 0.00195014065244 0.00800411690132 -0.0867612424941 -0.0878325234522 -0.0610220254358 0.0385938736722 0.0162293967928 -0.0700435066207 -0.130896733599 0.0134316972602 0.0998000582383 0.0455047495923 -0.0349933470462 -0.0238090539463 -0.0103388470409 -0.0330318146446 -0.0364556063106 -0.0375872410165 -0.00498339396885 
luxurys 0.0382573669411 0.0222467692162 0.0549016716191 -0.0159194417794 -0.0247199733076 -0.0411818305875 -0.0665122152227 0.0280502864072 0.151938973394 0.0370455310786 0.0855838601035 -0.0632286174729 -0.0190675899043 -0.0242359368023 0.100672250569 -0.040139532136 -0.0215488396874 -0.0771544115413 -0.145814927031 -0.0218781877814 -0.174451412952 -0.00599809808638 -0.00626969582772 -0.0938937045552 0.0203025651631 0.0677934657816 -0.0624185209063 -0.0267934870118 -0.00249426896768 0.0114004443208 -0.0811604600654 0.0936303527398 -0.0649325304202 0.0191648098044 0.11985944179 0.0691225155165 0.0321209828883 0.0676132239871 -0.2176833927 -0.0158606718328 -0.0414086783015 0.0985067785853 0.0555735231975 -0.0691340145506 0.0343879829516 -0.0521279750522 0.0622510179684 -0.0672712166645 0.0719999683512 0.0301157327664 0.0522603233745 0.124724586531 -0.0430574538267 -0.122919489637 -0.210597894095 0.138294378066 0.0245670851419 -0.101158700595 0.144676929644 -0.0184833398804 -0.0248551370166 0.0391513109028 0.020706892836 0.110767642532 -0.0100406949496 0.0424267322266 -0.0541429524843 -0.0459971556491 -0.0416421784493 0.0871515080434 -0.000623449371465 -0.0497023242677 -0.00610884718628 -0.0107688943096 -0.0396872802573 0.0511834738041 0.0549950734477 0.114092341389 0.0360508306374 0.142772732628 -0.149977929407 0.00214624856388 0.0542251070851 0.0431243766544 -0.109357246467 0.105658495124 0.0540641327443 -0.0220743946488 -0.0259446353382 0.0884341593108 -0.0305871326278 -0.049323725998 -0.0691800665662 -0.0552193712018 -0.0506039163631 0.111227942896 0.0353867309186 -0.0439482260546 0.0289541859695 0.070903215496 
ibookg4 0.0111497724494 0.0183214711322 -0.0477113618446 -0.0559298392783 -0.0205557462593 -0.00798175115596 0.00569214715811 -0.0687807337724 0.0243746682135 0.105056889517 0.0495718868386 0.0432513954721 0.053839910354 -0.0572474334694 0.0855516763729 0.0499212384218 0.0261103948495 0.0249465920995 -0.00852767304598 -0.182806749761 -0.0783758049003 0.112068973404 0.00497334355254 0.0182496040139 -0.0693398396361 -0.0644258380223 0.0394803894703 0.00567529860563 -0.0984286745808 0.000287699906874 -0.0252980428833 0.0357012156551 -0.00995083509837 -0.0680528082719 0.0143501219786 0.11872287293 -0.0846608686485 0.0686127814296 0.0422629894736 -0.0866416247956 -0.00504479896817 -0.0457758397908 -0.0488420630703 -0.0524942361831 -0.0511596210575 0.0915294770899 -0.00708532435638 -0.0452493437133 0.0475392357807 0.0327676899768 0.0706943068869 0.0106067221172 0.0283525412801 -0.0158772717584 -0.0256276979012 0.0696563062275 0.00994444808975 0.0672947819677 -0.0786822607661 -0.0273937183866 -0.0128660696058 0.0931132780435 -0.000477875463405 -0.011644947691 -0.0651982192634 0.0130304223878 0.0312736929441 -0.0436780681138 0.0416484890227 0.0390687245061 -0.0361558396085 0.0236132169714 0.0370044420163 -0.0364814169771 0.0496535919804 -0.0622098625644 -0.0453243626592 0.0560847124503 -0.0113732716506 0.124164068298 0.0271716648887 0.0565331120272 0.055139986983 0.0488810137646 -0.00548782295256 -0.0158435970051 0.0854152530166 0.00570272337104 -0.141536341055 -0.0746611570551 -0.102838924522 0.11206142038 0.153699011301 0.007537874837 -0.0633180849284 -0.00596422366704 0.055049901337 -0.0811392612237 0.0741854338776 -0.0238625948266 
